2406 128
479 0.1388986 -0.123929374 0.15917686 0.035022892 0.0702136 -0.011182743 -0.025736714 -0.049956035 0.119222105 -0.025674209 0.027347602 -0.03747344 0.0044835713 -0.31970415 0.119823605 -0.2785126 -0.06738572 0.012298168 -0.101401374 -0.025254572 -0.0665915 0.14679898 -0.065643325 -0.09411223 0.040858146 -0.029711738 0.094465405 -0.14351515 0.028771363 0.021652129 0.009497823 -0.08718312 -0.18473546 -0.19145373 0.013958117 0.10271741 0.264054 0.0050888085 -0.09604399 0.0026840265 0.10010841 -0.017931802 0.050183963 -0.12980059 -0.0114412205 0.068273455 0.18711254 -0.10879306 -0.09466165 -0.21951488 -0.07888497 0.21709985 0.24975331 0.14355484 -0.07820213 0.06915875 0.14123376 0.04961995 -0.26713184 0.22721605 0.16955373 0.033338536 0.04977827 -0.15199159 -0.06883271 0.095600665 -0.15719667 -0.10343227 0.01572806 0.0059733503 0.34823015 -0.11487764 0.13424815 -0.027456941 0.20849633 -0.1254042 0.03657539 -0.04165391 0.08291602 -0.11153509 -0.036635704 -0.12397716 -0.0665015 -0.1486002 -0.069102466 0.10309174 -0.005766388 -0.035716277 0.015122054 -0.07058297 -0.17003779 0.11929559 0.065000564 -0.15962704 -0.12540147 0.133443 0.09185289 0.04987216 0.08454405 -0.08112875 -0.07287575 -0.080956236 0.049262676 0.10187242 0.014193712 0.11068887 -0.02159552 0.024651878 -0.06897934 0.08240223 0.024594566 0.24617417 0.051730596 -0.20245065 -0.048512727 -0.075386316 0.032574706 -0.0029830276 -0.035748072 -0.09229463 0.09521502 0.058147117 -0.22590771 -0.09067997 -0.11580236 -0.15012585 -0.14739466 -0.037387438
643 0.0072412323 -0.16976741 0.4044137 -0.071773715 0.058701098 0.109006 -0.030212473 -0.12971413 0.035306524 -0.16885957 0.04668609 -0.035496157 0.030547999 -0.15130003 0.16579449 -0.23050867 0.076720364 -0.16525108 -0.08660982 0.00090616837 0.028615937 -0.009232365 -0.018197263 -0.031690594 0.09027114 -0.030215874 -0.04458778 -0.13384388 -0.07528241 0.09303172 0.112990946 -0.03609323 -0.2783708 -0.17040835 -0.02120653 0.077021345 0.1171752 -0.032814566 -0.24519202 0.034862094 0.16625594 0.005425848 0.20330907 -0.021153167 0.094943866 0.13730104 0.22509272 -0.033680394 -0.111963965 -0.072686 0.101820424 0.07957015 0.034430202 0.27922428 -0.001911812 -0.27792552 -0.011063236 0.12858762 -0.09753347 0.14179596 0.072548546 -0.11722921 -0.0010256098 -0.11872802 -0.1387429 0.013695298 -0.107157744 -0.25883144 -0.10945254 0.21353117 -0.040279593 0.18222918 0.22479215 -0.08700238 0.14782771 0.047995016 0.13732456 -0.118064396 0.1212405 -0.06830022 0.06907801 0.08413332 -0.0014053008 -0.2730407 0.03705971 0.2404691 0.019150807 -0.008026699 -0.15122874 -0.014758819 -0.120133266 0.063240476 0.22423829 -0.14404054 0.18391274 0.23495439 -0.035615668 0.08065715 0.068440616 -0.14850329 -0.053014424 -0.118175484 -0.13294703 0.06331381 0.021454154 0.1707347 0.037633784 -0.024745157 -0.10336225 0.1638857 0.33262113 -0.03982063 -0.042777177 0.05669077 0.093096346 0.03900898 -0.07999144 -0.027692882 0.090357654 -0.2471441 -0.05970468 0.08948079 0.09061187 -0.15536626 -0.16398092 -0.10948328 -0.0647413 0.08196108
516 0.18251729 -0.17813177 0.34447476 -0.20126584 0.08069402 -0.0016663591 0.050159883 -0.26020992 0.05774009 -0.011205389 -0.015133539 -0.19495755 0.16054086 -0.1470085 0.21342446 -0.19697419 0.11441716 -0.1384862 -0.16278662 -0.06610445 0.17442521 -0.014331693 -0.07752296 -0.2292546 0.023015425 -0.26092038 -0.11969814 -0.08236072 -0.008981957 -0.13171986 0.012671299 -0.12149141 -0.31565553 -0.030445943 0.04173433 -0.08543286 0.18032514 -0.11301096 -0.21186274 -0.26855963 0.10293214 0.08812445 0.093510464 -0.122504465 0.14618307 0.0963732 0.16962346 -0.06776972 -0.035596337 -0.31324255 -0.22424585 0.093816034 0.053682193 0.13785312 0.3195063 -0.20686804 0.02063421 0.12483843 -0.26056957 0.03835607 0.05505839 -0.07160375 -0.047381435 -0.0069198506 -0.07793219 0.060294572 0.11363045 -0.083198264 -0.18231867 0.13599019 0.111763656 0.03969336 0.17285143 0.08857041 0.36190122 -0.07374778 0.12928995 -0.15360704 0.19695915 -0.055470113 -0.078035854 0.14564098 -0.07782681 -0.021017723 0.19692327 0.17498007 0.02668141 -0.03607216 -0.15853412 -0.19545299 0.05570257 0.0980602 0.054599494 -0.25335807 0.017300185 0.28107157 0.14051718 -0.3231289 0.075131945 -0.030081036 0.030297512 -0.008938558 -0.11345829 0.08370339 0.12783627 0.036328275 -0.10036183 -0.15095143 -0.17820647 0.03766133 0.3450998 0.13793688 0.11330896 0.18587363 0.025993286 0.0116941715 -0.07580693 -0.09576703 0.031481653 -0.1348287 0.24585702 0.14259225 0.23754291 -0.102494754 0.06189982 -0.1903155 -0.16538647 0.04979722
808 0.2283989 -0.12622952 0.21887493 -0.10389503 -0.013193566 0.05915106 0.10459606 -0.23863965 0.05189315 0.06372955 -0.039770756 -0.13417767 0.14655119 -0.07812692 0.20285526 -0.20868766 0.089394 -0.20362476 -0.11655158 -0.049827676 0.117210716 -0.04000287 -0.12492787 -0.17442758 0.08812987 -0.25965852 -0.14086677 -0.003919566 0.09311655 -0.08847032 -0.014786577 -0.17572296 -0.30101797 -0.13834874 0.05574705 0.085867405 0.16081883 -0.14639622 -0.13174893 -0.31902847 0.09470191 0.07529363 0.07228288 -0.06433934 0.18831286 0.036682915 0.12354352 -0.03507345 0.01833305 -0.19605744 -0.11886851 0.18132915 0.11243456 0.14350602 0.27848065 -0.22448826 -0.0017671701 0.04700415 -0.20082062 0.17605649 -0.0031903328 -0.15212588 -0.04239961 -0.10455514 -0.16814494 0.073255464 -0.0035016658 -0.107686676 -0.28241956 0.0124322325 0.06392796 0.036360115 0.121822596 0.1000261 0.3450641 0.03565416 0.107397884 -0.09128998 0.28872606 -0.05610695 -0.10680845 0.10185645 -0.12382881 0.03520327 0.18410453 0.17458883 -0.08198971 -0.07274694 -0.07456507 -0.22773898 -0.083453216 0.06093037 -0.025786629 -0.17987642 0.08450097 0.14297079 0.045310773 -0.23066442 -0.010911503 0.081611596 0.03805386 0.037754014 -0.09273793 0.1207423 0.09711867 -0.027007692 -0.07601272 -0.008672863 -0.31677148 -0.047285695 0.41560897 0.19141391 0.13193324 0.15026703 0.031190332 0.044220153 -0.08627759 -0.08878344 -0.029247161 -0.11461757 0.20610568 0.0021820774 0.04699339 -0.14551108 0.028166056 -0.14576049 -0.17842661 -0.062144008
1123 0.068657294 -0.1784366 0.2506043 0.005354712 -0.03240746 -0.0061595473 -0.22542416 -0.34529537 0.23375756 -0.12771799 -0.054526653 -0.11102814 0.113971666 -0.22423248 0.080599315 -0.1710855 0.11308804 0.014526025 -0.07666246 0.115073174 0.05095425 0.076838546 0.14547232 -0.007660432 0.0057458947 -0.19524054 0.056042906 -0.035522696 -0.111068085 -0.05394216 0.0040952866 -0.061398827 -0.143147 -0.04372432 0.052548677 0.019332713 0.16325459 -0.2263116 -0.10572328 -0.16087887 0.135845 0.025677485 0.25064534 0.0145227425 0.10702986 0.15917245 0.05601698 -0.02549932 -0.17431283 -0.035272494 -0.08544988 0.16419923 0.0986752 0.32069525 0.06800986 -0.1414853 0.18504901 0.10046457 -0.13656603 0.07918909 0.13560563 -0.04677497 -0.032095 -0.1152354 -0.1068535 -0.074705176 -0.06422633 -0.29354483 -0.16878171 0.19345717 0.20811473 0.09785839 0.12980936 -0.10009391 0.29939607 0.024413366 -0.07909413 -0.061771937 -0.031503867 -0.14847113 0.07558681 -0.007139225 -0.15163037 -0.12314711 -0.083013244 0.08256505 0.046741415 0.030134594 -0.10081479 -0.21502721 0.06649106 -0.11896733 0.06663712 -0.11849456 0.04774563 0.0024487628 0.1704516 0.07706048 0.029655065 -0.07319796 0.054703377 -0.17778566 -0.24140652 0.15934959 -0.028671 -0.035099097 0.041643858 -0.10356963 0.02710824 0.15191987 0.16796282 0.08528664 0.09614162 -0.048114877 0.051767472 0.15826745 -0.020661695 -0.074895315 0.1532866 -0.13086042 0.032027047 0.16430138 0.056922723 -0.24183615 -0.22264677 -0.018313983 -0.085709766 0.08706942
289 0.06860077 -0.11637058 0.25498298 -0.09213905 0.025350504 0.090908065 0.06968608 -0.09994215 0.056861784 -0.124634504 0.16651906 -0.080482684 0.20209487 -0.02416868 0.23765355 -0.07515149 0.12492239 0.092701614 -0.096123435 0.033653617 0.3097778 0.009870853 0.14138898 0.06332153 0.09179965 -0.255282 -0.1025156 -0.11889828 -0.08412067 -0.003346317 -0.12216577 -0.019126287 -0.34074536 -0.31397793 0.14246769 0.25668138 0.09363906 -0.0044132806 -0.23803765 0.010101774 0.059731577 0.2206538 0.1263529 0.13758166 0.16669542 0.15164398 0.23908241 -0.0996439 -0.082009815 -0.08508335 -0.056079593 0.04145998 0.17403775 0.24431911 0.10473951 -0.19572787 0.035357907 -0.01927425 -0.14713153 0.042304657 0.13120371 -0.17045611 -0.12007682 -0.06897139 0.075884596 0.026934145 -0.17230542 -0.32507083 -0.19213949 0.118855566 0.22448277 0.02710156 0.026632328 0.04682987 0.35875624 0.032058585 0.2010114 -0.102792755 0.11366972 0.014421858 0.032103036 0.17373008 0.03451009 -0.11412733 0.10653782 0.17720519 0.07227232 -0.12802273 -0.048292924 0.016629511 -0.06384515 -0.018075975 0.037763875 -0.3013445 0.113149405 0.18217716 0.014140505 0.06205124 0.008118092 -0.07418419 -0.10029529 -0.13879669 -0.061396994 0.053796954 -0.04494687 0.027970565 0.02450397 -0.09869666 -0.020676287 0.059538566 0.29592168 0.0812635 0.077013224 0.03553253 0.04800235 0.17117211 -0.091954336 0.17094181 -0.05532635 -0.20828572 0.0005918607 0.13863891 -0.036881786 -0.159021 -0.1643006 -0.16261317 -0.033446375 0.10149732
1121 -0.03125553 -0.106097214 0.35628247 0.051896155 0.04677968 0.044620547 -0.071806625 -0.18083304 0.08270491 -0.007893819 0.042735618 -0.07826457 0.08006523 -0.16697653 0.16194649 -0.2685927 0.048347104 -0.1501614 0.060981374 -0.010282169 0.124586776 0.05293783 0.0058218013 -0.060349997 0.078228034 -0.124631636 0.08002326 -0.019395668 -0.07646962 0.014704623 0.035623018 -0.052333187 -0.23406401 -0.1926966 0.1504549 0.15460643 0.24939182 -0.07049043 -0.286761 0.008190738 0.101303816 0.06954393 0.20526904 -0.04400664 0.15059552 0.079469286 0.18001592 -0.042603638 -0.056991413 -0.21329835 0.07479373 0.0333317 0.042595454 0.29271445 -0.0027854552 -0.28235263 -0.09639821 0.16425383 -0.120621085 0.13706881 0.09084932 -0.17356227 -0.0026207028 -0.078455806 -0.06641167 0.016211845 -0.13562036 -0.29318413 -0.07275546 0.1133188 -0.06956388 0.2560733 0.22564812 -0.08590869 0.18657225 0.08491323 0.2126002 -0.0719115 0.07891618 -0.033808164 0.1056419 0.1289565 0.09040459 -0.27472824 0.06786976 0.27971998 0.07981519 -0.0038482768 -0.19616446 -0.05240769 -0.097354315 -0.018068487 0.093321964 -0.03701937 0.09890523 0.12091691 0.09893458 0.0531365 0.04026392 -0.10218168 -0.037102822 -0.11302512 -0.13859472 0.086150356 0.021841941 0.09047063 -0.013875728 -0.056811877 -0.0036288772 0.23369512 0.33217365 -0.03952961 -0.041095335 0.04408398 0.08120789 0.07546971 -0.11785691 0.10757785 0.113966435 -0.2182568 -0.06257424 0.06647112 0.12118102 -0.13750874 -0.134773 -0.170031 -0.025036322 0.08498335
349 -0.004933366 -0.070412025 0.35520467 -0.049541354 0.04188242 0.21446392 0.04153962 -0.06101539 -0.043949332 -0.058285385 0.16135104 -0.11557689 0.24951816 -0.044389997 0.14374585 -0.05397003 0.08810444 -0.01551219 -0.07810682 -0.029881764 0.22520454 -0.022707332 0.103318974 0.10866819 0.12308137 -0.19967246 -0.034207817 -0.002238013 -0.030729853 -0.024155796 0.07157867 -0.17125644 -0.31519732 -0.14789881 0.14863376 0.19872671 0.23683897 0.019656964 -0.25160426 -0.08493264 0.18274714 0.030655378 0.19325815 0.024806378 0.24857399 -0.03881683 0.26629043 -0.10374966 -0.14774193 -0.104674496 -0.09476903 0.10793736 0.12727652 0.2150551 0.04751353 -0.1748867 -0.07365916 0.04217531 -0.0803204 0.20662205 0.18376191 -0.089337565 -0.013631038 -0.14493929 -0.008317936 0.101486556 -0.09325493 -0.25054398 -0.20448667 0.010914451 0.2518293 0.013618444 0.07853727 0.036566194 0.36002114 -0.001441072 0.16757655 0.008453322 0.07397185 -0.05671044 0.06959545 0.05149701 0.021699602 -0.16406672 0.048125308 0.18614425 0.02589706 -0.07352914 -0.14642632 0.020536084 -0.2021395 -0.014095037 0.087248 -0.31523877 0.16829936 0.19914709 0.008844807 0.025478596 0.044841275 -0.11474952 -0.03031491 -0.1395199 -0.007503103 -0.005923597 0.041656118 -0.0865703 0.022116512 -0.08463778 0.011925327 0.03009843 0.36447474 -0.0037672 0.0027018464 -0.0067799105 0.081685714 0.08323233 -0.18672715 0.14271487 -0.1059864 -0.22204916 0.22007899 0.20367904 -0.04490252 -0.031241091 -0.15749776 -0.15290685 -0.08117881 0.103747636
1122 0.0571134 -0.27633157 0.21884662 0.037637983 0.04266087 -0.032919332 -0.093405046 -0.20047314 0.18385513 -0.17955725 -0.053827006 -0.04096537 0.20168367 -0.085890315 0.15504146 -0.19962355 0.06961406 -0.09494926 0.048738528 0.08313083 -0.039758224 0.13037963 0.036311135 -0.069119304 0.002194881 -0.17950757 0.039758682 -0.063716255 -0.15778795 -0.029377159 -0.07505181 -0.1053289 -0.07524228 -0.008684538 -0.02925748 -0.07422845 0.1573708 -0.25151 -0.041568507 -0.020068105 0.14570479 -0.008444533 0.29529664 0.015520674 0.06282651 0.0874593 0.12116968 -0.09619013 -0.19750953 -0.061586473 -0.13018319 0.12832971 0.03462137 0.3250658 0.11195944 -0.072697595 0.15388031 0.17439376 -0.083735354 0.1374003 0.06527748 -0.09907151 0.0035438954 -0.07239737 -0.1565344 -0.10352277 -0.033338442 -0.47704378 -0.17902236 0.13046938 0.14848728 0.1743986 0.074470185 -0.11822263 0.26135826 0.070768096 -0.069649644 0.02311853 0.07818496 -0.11671174 0.08907799 -0.01333495 -0.06862192 -0.048083737 0.060096674 0.069574 -0.02777298 0.017640553 -0.1786123 -0.20268016 0.19124967 -0.14476746 -0.008309994 -0.12037865 0.10147936 0.047830924 0.23849447 0.09002054 0.10919588 -0.1518194 0.08437916 -0.16008669 -0.1889429 0.07281017 -0.017579855 -0.040012307 0.044205427 0.08375963 0.027711822 0.17334895 0.19286129 0.1137293 0.16699867 -0.07998335 0.1256576 0.08887986 -0.17128326 -0.06924442 0.034133114 -0.17921214 -0.0049974225 0.18412732 0.11128911 -0.22749284 -0.25125223 -0.05083337 0.055077374 -0.18462572
574 -0.029027259 -0.10891597 0.2586563 0.067094624 0.058983445 0.13311918 0.057049282 -0.21264364 0.121995166 -0.12214628 -0.15419911 0.14060113 0.13566977 -0.18271004 0.3321816 -0.09653407 0.15554273 -0.037679486 -0.11225189 -0.043332234 0.06764391 -0.03208114 -0.018041013 0.03368869 0.024817595 -0.3169939 0.085987836 -0.13527441 -0.021771776 -0.08127939 0.0045755897 -0.25314838 -0.23445901 -0.19972987 0.039936725 0.024922252 0.24123079 -0.08097017 -0.12355004 -0.11788576 0.20309107 0.13327706 0.17587973 -0.045578953 0.19255508 0.08757577 0.08016095 -0.09254159 -0.21941891 -0.18898731 -0.047173887 0.3212644 -0.028930448 0.22132474 0.15638371 -0.24751496 0.0113007985 0.10812253 -0.28732145 0.085567415 0.18407889 -0.12406031 0.023782747 -0.14237648 -0.19940865 0.09821709 -0.084837414 -0.21524526 -0.1828611 0.07643793 0.1031369 -0.037508722 0.24667987 -0.035855073 0.28983933 0.11731104 0.29809734 -0.10971464 0.1670252 -0.041626807 -0.0319421 0.099372216 -0.14545761 -0.14977682 0.045174636 0.16287164 0.0923863 -0.0877183 -0.18831788 -0.07214185 -0.067577615 0.015020322 0.07349656 -0.18833223 0.25530982 0.15387927 0.054127157 0.07395984 -0.09885745 0.092521764 0.033275366 -0.039929662 0.06673703 0.014583551 0.06584785 -0.23968609 -0.23838228 -0.0091997 -0.23261026 0.019509135 0.37107134 0.23612468 -0.0853705 0.13680477 0.05630109 0.13866067 -0.091074355 -0.05649884 0.04544914 -0.09190364 0.07474145 0.005933471 0.08368535 -0.12249114 -0.14154243 -0.15260914 -0.20651712 0.048534807
571 0.0264493 -0.21416306 0.33971512 -0.11291045 0.08713558 0.04721751 0.10290006 -0.065333955 -0.06288322 -0.09679966 0.094595544 -0.097226545 0.12592748 -0.02787277 0.15930654 -0.14690985 0.04572397 -0.012454341 -0.027624946 -0.08430116 0.16383402 0.028766127 0.062488418 0.005541252 0.107980505 -0.17302385 -0.16675444 -0.088968165 0.030488424 -0.011439642 -0.039612867 -0.1601139 -0.32915422 -0.2804737 0.19278722 0.23014466 0.23844223 -0.09392487 -0.12131104 -0.06712289 0.15116443 0.13346975 0.24799097 0.052737273 0.16682647 0.08391384 0.27089825 -0.10589858 -0.0960624 -0.12342131 -0.06636446 -1.6822263e-05 0.023039704 0.18235672 0.038972434 -0.16494446 -0.038182788 0.0315204 -0.17803846 0.10335411 0.22543411 -0.17946269 -0.1134962 -0.14198336 0.073055804 0.059009258 -0.10867607 -0.23479371 -0.030108213 0.19521362 0.2421699 -0.07589729 0.034326047 0.10756778 0.3532291 -0.09749232 0.1406354 -0.05193739 0.10580135 -0.12839298 -0.0069255955 0.076379806 0.0648292 -0.16010565 0.21575564 0.22941725 0.15476738 -0.12447012 -0.11935551 0.04422538 -0.16135566 0.13324796 0.03215635 -0.19207162 0.067999765 0.07387172 -0.06478555 0.017325664 -0.05441121 -0.06641087 -0.055312347 -0.09263356 0.0048362077 0.04613368 0.04340645 -0.038895503 0.013815358 -0.07659434 -0.117187016 0.07310819 0.37704918 0.050513506 0.029087193 -0.010167176 0.0866859 0.19499041 -0.13994351 0.09905698 -0.020763889 -0.19343823 0.07048712 0.18366332 -0.04753002 -0.13676137 -0.19712579 -0.13558161 -0.059451878 0.14680134
162 0.072477974 -0.14454344 0.2970649 -0.091600925 0.11308834 0.08090359 0.015150328 -0.11842173 0.18948957 -0.123059504 0.10162674 -0.07358826 0.20292577 -0.032946948 0.13198654 -0.20396739 0.18115139 0.19282389 -0.12481286 0.041249458 0.19980496 0.026140448 0.06138125 -0.024859238 0.15668081 -0.21126269 -0.11224125 -0.11757034 -0.07760688 -0.021708135 -0.16339873 -0.20869279 -0.28718877 -0.31644508 0.14936498 0.15060492 0.13300768 -0.034788243 -0.117330424 -0.10925039 0.15719052 0.116839156 0.15340894 0.06808515 0.109383225 0.0468686 0.18001673 -0.05721635 -0.13112344 -0.0422903 -0.0059855515 0.010283396 0.1088717 0.22625934 0.1548158 -0.14660886 0.0020395352 0.0226104 -0.035974685 0.07098986 0.072465725 -0.111706965 -0.120002106 -0.1777752 0.004913035 0.03148862 -0.14917846 -0.24808197 -0.19933616 0.023594156 0.27040526 -0.017035507 0.10745513 0.0653196 0.27276823 -0.04336318 0.11031197 -0.07673754 0.15440094 0.022467537 -0.1194169 0.19674307 -0.1041032 -0.21603508 0.011506876 0.10600797 0.08637993 -0.06955257 -0.13911653 -0.11541505 -0.11307779 -0.04258377 0.09491572 -0.23044488 0.11395154 0.18908605 -0.099455796 0.12562089 0.022949036 0.0150662195 -0.0832704 -0.03632408 0.038201574 0.074604675 0.03490188 0.03378586 0.019447124 -0.015992455 -0.05512335 0.07356108 0.24042383 -0.0673977 0.017091205 0.14276563 0.065369494 0.22445036 0.005055903 0.094861425 -0.04156065 -0.1657234 0.041882273 0.17427593 0.02515707 -0.14436194 -0.17027605 -0.22081244 -0.023961067 0.0031241179
807 0.11868755 -0.17960478 0.23882127 -0.19294247 0.050153993 0.045425463 0.08174513 -0.27704617 -0.022222776 0.020599486 -0.034634702 -0.1661927 0.08895428 -0.17001843 0.18848994 -0.20047492 0.09304848 -0.23335293 -0.16309565 -0.096222796 0.22483304 0.011502637 -0.07519111 -0.09324454 0.10838669 -0.17124036 -0.10658906 -0.021215139 0.026327305 -0.047862027 0.021634107 -0.14692807 -0.36756608 -0.09381008 0.07990984 -0.040564522 0.118684426 -0.21087508 -0.25287944 -0.20794268 0.1213408 0.1220845 0.17717217 -0.12526928 0.15240313 0.15277815 0.18555309 0.020462023 -0.0026092902 -0.2122237 -0.10509567 0.08014047 0.057439577 0.18628806 0.1840487 -0.30041304 0.023555763 0.15344813 -0.12995037 0.06577224 0.07527721 -0.15340549 -0.06578011 -0.12939514 -0.13527948 0.04696035 -0.068083815 -0.086501166 -0.17586705 0.1706463 0.052755557 0.06733059 0.11225742 0.09712054 0.40993196 0.025352381 0.220732 -0.0898354 0.22881779 -0.11326523 -0.0911998 0.14627309 -0.043555465 -0.030206703 0.13043451 0.21775988 -0.024587061 0.023046507 -0.073693536 -0.16171895 -0.12500663 0.0569937 -0.033339497 -0.23824748 0.093790144 0.2451922 0.062258616 -0.21008933 -0.0300166 0.04162586 0.04563903 0.07027933 -0.09929167 0.11515329 0.002712171 -0.066046536 0.03512689 -0.06689739 -0.15744826 0.044199675 0.44157335 0.043743048 0.1124891 0.17115068 0.10734535 0.032672543 -0.17449299 -0.035002787 -0.020429078 -0.14187272 0.17856139 0.020744117 0.13595454 -0.12175545 0.058418795 -0.25664344 -0.16308974 -0.04208061
90 -0.009389203 -0.2017651 0.27459043 -0.086163126 0.1292385 0.13270554 0.048423484 -0.06358847 -0.08123207 -0.0151451435 0.20553805 -0.14527167 0.114076585 -0.083709106 0.21392465 -0.09857485 0.122703925 0.013199642 -0.08949361 0.05936568 0.17197518 -0.0036237452 0.109478004 0.024789132 0.12588654 -0.16739435 -0.0723191 -0.03306956 -0.020890212 -0.04438562 -0.08654174 -0.068726406 -0.2823897 -0.19075923 0.10725957 0.29983136 0.21191737 -0.043832425 -0.25127968 0.051185515 0.1888068 0.15658952 0.13096742 0.15458193 0.092240356 0.14155938 0.26726204 -0.02584855 -0.072159834 -0.03373516 -0.021960033 -0.019454403 0.12406265 0.21998847 0.08364367 -0.13620415 0.010131141 0.09261121 -0.13876472 0.14315854 0.11336939 -0.23687276 -0.04826512 -0.109698 0.025145793 0.059264246 -0.24461332 -0.37310418 -0.15708198 0.10869367 0.25387955 0.09436835 0.11625686 0.020836597 0.31015214 0.01152234 0.1794955 0.0062074484 0.09941448 -0.002897515 -0.0109606115 0.15134841 0.046365477 -0.12906751 0.122145005 0.22752558 -0.0082060695 -0.16953678 -0.11491215 -0.021512084 -0.07465778 -0.0351956 0.15150481 -0.16269328 0.12903582 0.12977251 -0.08939986 -0.024029035 0.025267508 -0.06755087 -0.15396588 -0.15569521 -0.028878698 0.04951871 0.061554335 0.05744104 -0.013330719 -0.058699153 0.09977431 0.07119919 0.2978112 -0.033515718 0.045397565 -0.103656486 0.028018521 0.16099712 -0.07768147 0.16348757 -0.06385976 -0.25776547 0.0112095885 0.21805874 0.02059065 0.019503891 -0.23505336 -0.21236742 -0.10871121 0.119370416
484 -0.042282745 -0.166402 0.32446352 -0.09487014 0.03509113 0.1780971 0.005369988 -0.059740968 -0.015111542 0.11411431 0.1612374 -0.17002723 0.18328078 -0.14246804 0.21852781 -0.013847635 0.07745064 -0.009475094 -0.07692198 0.06315817 0.13880049 -0.003270255 0.20522934 0.022326574 0.08267548 -0.17688748 -0.064773664 0.14376135 -0.12648064 -0.08996035 -0.0356789 -0.15615246 -0.32333916 -0.18847731 0.24146731 0.21784224 0.2144007 -0.07247197 -0.19371484 -0.057501804 -0.0073923725 0.22371338 0.12816612 0.07868603 0.06896241 0.067359366 0.21292064 -0.13454904 -0.090007626 0.0013565775 0.02314889 -0.088997036 0.19529012 0.28994977 -0.020335717 -0.14771825 0.14718843 0.09996309 -0.08850442 0.21548085 0.11434861 -0.15261276 -0.08990688 -0.1677702 -0.1279351 0.05523559 -0.19647092 -0.38275716 -0.12562148 0.13466756 0.27831575 0.11655862 0.1118733 0.035986897 0.304458 -0.03152592 0.08767975 -0.15559267 -0.0028257554 0.02098192 0.04411719 0.15293525 0.05370708 -0.12588921 -0.0024824925 0.24173827 0.07338176 -0.21268621 -0.112465225 -0.031895835 -0.13765223 0.071661174 0.18326916 -0.173568 0.114389814 0.2616227 -0.042714495 0.106289506 0.014090019 -0.01774401 -0.051214553 0.037179317 -0.1314662 0.10241283 0.06991003 0.0043322165 0.048852257 -0.1188513 0.037444234 0.058709465 0.27107063 -0.08577878 -0.07373433 0.019239185 -0.034986526 0.24581604 -0.038975902 -0.0115139205 -0.072604895 -0.26641512 0.015337193 0.18045141 -0.08290578 -0.08943674 -0.15587975 -0.14806776 -0.04450853 0.16868247
938 0.15109515 -0.15948117 0.23298901 -0.13306776 0.0558778 -0.06820623 0.06771024 -0.27821842 0.007873215 0.088734835 -0.026591586 -0.14236328 -0.046454027 -0.03227657 0.27390495 -0.24320827 0.15650573 -0.21433939 -0.06082418 -0.114812285 0.094165094 0.09061747 0.005770535 -0.10762579 0.104259126 -0.25359604 -0.051338427 -0.09012583 0.078784406 -0.10998691 0.1439487 -0.2589151 -0.32978278 -0.16075777 0.024747608 -0.036677595 0.25759545 -0.086449794 -0.14709412 -0.10409282 0.1480062 0.10178497 0.14520872 -0.03453783 0.15269558 0.013171919 0.16905522 -0.16458282 -0.15267833 -0.12232831 -0.18753172 0.07264985 0.024626149 0.23133364 0.09520239 -0.23437122 0.053954583 0.0780113 -0.083306536 0.10386324 0.033484705 -0.2148227 -0.0740468 -0.017644482 -0.15171848 0.0701591 -0.059673622 -0.13444532 -0.08108218 0.10993665 0.20433868 -0.104534104 0.0057987836 0.061085794 0.44899318 -0.06601505 0.15293281 0.033135083 0.14502221 -0.10641169 -0.053299483 0.11234577 0.0036694119 0.076870054 0.097296774 0.1533737 0.047324974 0.07326274 -0.02336649 -0.067228936 -0.15743092 0.09142631 0.059772488 -0.18426804 0.019740688 0.22820413 0.020631675 -0.17096628 -0.039740775 -0.03158664 -0.097928725 0.043453492 -0.016092485 -0.02003056 0.11696795 0.09273765 0.10833426 -0.10255488 -0.31133294 -0.09439037 0.3830386 0.18326038 0.22748394 0.11411349 0.0967031 -0.031838227 -0.092662595 -0.013495904 0.020594787 -0.08032206 0.16131146 0.0679355 0.03709677 -0.20090465 -0.16897029 -0.19787778 -0.04382314 0.009623895
118 -0.02828504 -0.28411737 0.383007 -0.034260932 0.022229621 0.19379906 0.13918754 -0.06857179 0.008236789 -0.11479905 0.15199333 -0.13771394 0.09052073 -0.023593815 0.09214759 -0.10185391 0.093130395 -0.072709955 -0.2166131 -0.02028741 0.11308237 0.13779405 0.13989823 0.02305755 0.07982352 -0.13479842 -0.09803007 -0.05130444 -0.088495485 0.077325135 -0.07451679 -0.116921514 -0.2820428 -0.15706636 0.11670384 0.168445 0.20344129 -0.15686727 -0.17614089 -0.0028480296 0.08430002 0.16518106 0.11600383 0.08225376 0.13569029 0.20844868 0.33108276 -0.18776384 -0.046967328 -0.058719892 0.010490166 0.08038458 0.11786678 0.2738052 0.07910542 -0.0999087 0.0056556766 0.04881605 -0.091282465 -0.024610763 0.1697587 -0.16431001 -0.12430651 -0.11992183 0.10282011 0.012080974 -0.04183259 -0.3038509 -0.09292491 0.059553247 0.24736996 -0.08187448 0.016544374 -0.007380828 0.29145852 0.09402821 0.14622481 0.00049019634 0.123486385 -0.12024396 -0.050429452 0.14468873 0.0070939935 -0.2893778 -0.016061967 0.18985623 0.02932365 -0.13179815 -0.11188533 -0.002496492 -0.14616977 0.09916419 0.052243892 -0.23550077 0.12936229 0.18626992 -0.07822377 -0.096394055 0.049134836 -0.0069111334 0.060993064 -0.09518507 -0.014476811 0.0039936583 0.0708435 -0.01635651 0.04878573 -0.17204948 -0.058523234 -0.00038288534 0.28988478 0.10140017 0.016973658 0.01112738 0.15708691 0.13737756 -0.18448927 0.23923653 -0.14503482 -0.19249974 0.07859772 0.114563935 -0.023418041 -0.16051333 -0.26561245 -0.13635865 -0.102490164 -0.0715875
165 0.07117923 -0.20073034 0.20444265 0.027458593 0.08389779 0.055978682 0.028779373 -0.111996405 0.07797684 -0.092525356 0.23065017 -0.22687718 0.17164798 -0.058911562 0.0932351 -0.21521771 0.12017253 -0.013285051 -0.06369028 0.051129628 0.10652576 0.0553614 0.071731485 0.012175967 0.044184092 -0.19993114 -0.11683547 -0.07603687 -0.02589794 -0.022436257 -0.10062762 -0.14246807 -0.29330003 -0.19965692 0.17943846 0.32294074 0.2521624 -0.016945994 -0.21995708 0.059216324 0.12428312 0.040862944 0.17645523 0.082517974 0.14284189 0.10876869 0.12200292 -0.06477309 -0.12687594 -0.1365703 0.014977205 -0.028934414 0.16193388 0.18875268 0.07220376 -0.1601764 -0.027334018 -0.02755312 -0.12886181 0.18438165 0.041482426 -0.21227951 -0.10427119 -0.096616276 -0.041244436 0.03138192 -0.11742394 -0.3454276 -0.11140131 0.06677263 0.15541716 0.07890017 0.08138579 -0.045528308 0.38553137 0.06595723 0.18478997 -0.13638836 0.046653513 -0.08403629 0.08913855 0.12207391 -0.09312066 -0.10232249 0.085009836 0.14287348 0.067315094 -0.15902363 0.013776469 0.022357339 -0.102903664 -0.050728012 0.19040428 -0.15792218 0.15924726 0.15320075 -0.11069095 0.084739216 -0.017397318 -0.11573394 -0.22314732 -0.20771481 -0.015219513 0.0077133933 0.078735776 0.021643233 0.03037142 -0.07312915 -0.07760341 0.06758936 0.28861973 -0.0039269417 -0.07521131 0.0074783075 0.09658494 0.07864268 -0.018566294 0.09998364 0.004615968 -0.17683533 -0.023422794 0.19583592 -0.00045822476 0.044112254 -0.22784464 -0.19287515 -0.06611068 0.04610012
977 0.051390037 -0.14659859 0.33046088 -0.14751802 0.040965866 0.098456815 0.12239674 -0.13510711 0.013221009 -0.086605646 0.13163969 -0.20878115 0.19290301 0.04807738 0.005152721 -0.14646254 0.05784516 -0.0154415695 -0.116973355 0.01892877 0.21062739 0.097489975 0.051251322 0.13138658 0.090555124 -0.18162775 -0.091008 -0.126978 -0.014746936 0.012930684 -0.08128104 -0.2643193 -0.3256993 -0.18238938 0.17584564 0.20889036 0.22996946 -0.1585148 -0.17335331 -0.054311857 0.22587347 0.06327559 0.20876081 0.009062124 0.07321028 0.14764376 0.27523634 -0.11573841 -0.13771322 -0.034834854 -0.04958552 0.071144685 0.022763828 0.28055665 0.09807326 -0.16724886 -0.0031646092 0.0034589765 -0.1080374 0.21676338 0.115728505 -0.19692796 -0.099121734 -0.13668582 0.09152345 -0.007434882 -0.126278 -0.25605953 -0.043938998 0.14835265 0.23326387 -0.12748004 0.074967094 0.08473381 0.37871867 0.015666967 0.059565887 -0.09241011 0.16436572 -0.12593913 -0.010247524 0.053641785 0.03191573 -0.12474404 0.10072873 0.24560563 0.04206162 -0.116826795 -0.08875622 0.016427701 -0.23768163 0.00026008656 0.12575354 -0.101096444 0.08371781 -0.026366968 -0.03786928 -0.0022688147 -0.0012348604 -0.09112015 -0.065792 -0.1343717 -0.020725122 0.03671805 0.043612644 -0.08332019 0.07071948 -0.04638571 -0.00027624986 -0.041769095 0.31094757 -0.10099713 -0.01736193 0.021299224 0.12451635 0.20485477 -0.124585696 0.048033398 -0.022211267 -0.17027378 0.1381802 0.039233055 0.09696174 -0.11480631 -0.15236199 -0.20633443 -0.06560797 0.08918292
367 0.07485182 -0.23123051 0.37906867 -0.02517977 0.09296531 0.18022822 0.08193453 -0.015523767 0.05479475 -0.09042608 0.06568944 -0.13958356 0.22230671 0.0035368064 0.21446685 -0.1565402 0.07631454 -0.027909521 -0.016923051 -0.013246681 0.11039567 -0.02294201 0.037783783 -0.02864822 0.1574044 -0.12843664 -0.12648791 0.0331176 -0.09213633 -0.06725205 -0.081483714 -0.19266494 -0.20702015 -0.17507946 0.08958209 0.19904563 0.16888857 -0.017680254 -0.13312452 -0.011944396 0.100569405 0.19862077 0.2111826 -0.04874973 0.118149556 -0.0039184685 0.23911424 -0.10644376 -0.15371218 -0.14548941 -0.02597201 -0.03545921 0.09055656 0.2660534 -0.026725536 -0.20966491 0.01908818 0.10794832 -0.101986185 0.16594218 0.10612287 -0.17030656 -0.060864523 -0.16950178 -0.053873084 0.044414353 -0.14952624 -0.25655335 -0.1385627 0.12514177 0.28421623 0.12787406 0.107443996 0.039061062 0.28197592 0.01391815 0.20683506 -0.13261996 0.071220055 -0.061407745 0.048476852 0.19569223 0.018985242 -0.27315947 0.03916563 0.09648552 0.049018387 -0.14099006 -0.06363027 0.05241721 -0.10564294 0.01597483 0.110349774 -0.20893009 0.16838832 0.27864158 0.015998768 0.0506816 -0.071713544 -0.1345628 -0.083888024 -0.0053164656 -0.06348126 0.07476706 0.11204322 -0.04356808 -0.024082921 -0.12292223 0.022933032 0.10637084 0.3352914 -0.043287776 -0.06951643 0.036988884 0.043175157 0.19883333 -0.022358045 0.100755714 0.017085662 -0.2768769 0.030615732 0.23611923 0.002188419 -0.04705542 -0.22348604 -0.06956208 -0.18051766 0.106781594
841 -0.0913706 -0.039044842 0.27915165 -0.023931205 0.11393686 0.122459814 -0.07796001 -0.35814375 0.12117615 -0.19356455 0.08645437 -0.023649974 0.20497996 -0.13211773 0.26097965 -0.27196592 0.25223154 0.01909462 0.07311837 0.088598296 0.10776678 -0.0016945653 0.13467623 0.014854885 -0.00013561828 -0.23542446 -0.14839794 -0.024719976 -0.02284876 -0.050601207 -0.03372065 -0.13377258 -0.44163558 -0.08529162 0.12823856 0.100512475 0.18206345 -0.06555013 -0.15403256 -0.068988785 0.04714803 0.3262586 -0.03799877 -0.21665011 0.11731634 0.04724077 0.22828671 -0.15654975 -0.14331219 0.06488232 -0.090606324 0.24871673 -0.017491942 0.2369979 0.13564406 -0.26059866 0.14836417 0.10049428 -0.271364 0.0005806597 0.17382473 -0.28393143 0.046583958 -0.13013437 -0.073116705 0.08313873 -0.28295693 -0.34729734 -0.20578536 0.2534739 0.013625554 0.16932212 0.100403965 -0.07650193 0.15976205 0.07913779 0.24294287 -0.09319452 0.16535275 0.06602485 0.090230465 0.1894982 0.1706484 -0.049556587 0.23229271 0.29086378 0.09089487 -0.08773109 -0.19273846 0.107120484 0.024496973 -0.018302504 0.11679674 -0.17253505 0.22674675 0.25068864 0.08733066 -0.10649463 -0.012475058 -0.017736314 -0.12014936 -0.076151185 -0.06995052 0.06016053 0.082652174 -0.02328219 -0.17631057 -0.14728574 -0.05070258 -0.13348553 0.3259489 0.076204225 0.0743616 0.041429985 0.07406079 0.19480793 -0.09040932 0.21362513 0.16863282 -0.23984258 0.11132827 0.009732394 0.1441274 -0.11810627 0.00020611168 -0.17854269 -0.2674595 0.13151939
1151 0.0012678214 -0.25135732 0.34058446 -0.047086805 0.036882658 0.14015171 0.045830622 -0.068124264 0.13501604 -0.022048272 0.15075892 -0.19741246 0.20135257 -0.088958785 0.099012 -0.23879598 0.15119326 -0.13005438 -0.09187328 -0.089849465 0.15220326 -0.073952086 -0.09440706 -0.07167133 0.033601917 -0.22033219 -0.037705753 -0.11083097 -0.0973169 0.014236579 0.034025107 -0.07827688 -0.36979753 -0.11717405 0.093221605 0.13350527 0.22268957 -0.1002964 -0.14630415 -0.010814719 0.019581595 0.20003533 0.07166199 0.0520397 -0.0019305055 0.06983268 0.18245928 -0.14914206 -0.14526953 -0.20397352 -0.0729108 0.10635496 0.0018378949 0.26202548 0.05419737 -0.08838514 -0.010499383 0.1423108 0.07866504 0.23013426 -0.059998374 -0.13854301 -0.06248451 -0.14837472 -0.034336146 -0.017638322 -0.33654645 -0.24666937 -0.14674549 0.012283433 0.19559963 0.03650157 0.009283667 -0.007766382 0.20336185 0.19573544 0.08076006 -0.12878555 0.30357742 -0.19702008 0.047407433 0.061841395 -0.08912779 -0.18983391 0.10062428 0.24903384 0.12749363 -0.024031546 -0.12350621 -0.15485711 -0.031338993 0.0524255 0.11703629 -0.087584645 0.14910157 0.22098976 0.013973374 -0.12014972 0.06679073 -0.15670957 -0.011548191 -0.102722555 0.10280237 0.16354194 0.04101104 0.066129304 -0.046063222 -0.04549628 -0.12222696 0.14831807 0.3612137 0.053973753 0.06097539 0.18618016 0.1944215 0.10288161 -0.018980497 -0.09584494 -0.15279934 -0.10901337 0.060086776 0.117002286 0.079265006 -0.10272817 -0.107569434 -0.16681531 -0.050087795 -0.018049752
34 0.010492905 -0.09989333 0.24496472 -0.06318763 0.16526695 0.0979513 0.055718746 -0.07645504 0.117419876 -0.11400359 0.07072556 -0.11642573 0.17923672 -0.07269 0.19385597 -0.13071115 0.15320636 0.07147055 -0.051186282 -0.010550766 0.14666308 0.049303148 0.093979396 0.07447954 0.114586815 -0.18230936 -0.017997108 -0.014476573 -0.04683033 -0.070326306 -0.11158541 -0.17206667 -0.40054438 -0.25454324 0.10784569 0.22680378 0.19593771 -0.06269865 -0.11632946 -0.07052733 0.121029675 0.11279554 0.116152406 0.12755272 0.14026347 0.11551695 0.1797225 -0.076949336 -0.116109684 -0.10708684 -0.010192476 0.078551196 0.14304702 0.20398943 0.07498123 -0.18850318 -0.03022945 0.08800844 -0.096928746 0.20469129 0.123958 -0.023068875 0.012554843 -0.11082446 0.088075496 0.083328776 -0.18193032 -0.21249211 -0.1589845 0.062656954 0.15568905 -0.0155237345 0.1632086 0.042051602 0.29833114 -0.0638065 0.15506434 -0.0592843 0.14843169 -0.035783686 -0.023022499 0.0816557 0.03952755 -0.15297346 0.12183931 0.19087021 0.033406653 -0.20186964 -0.05649292 -0.07588304 -0.13201167 -0.0030313344 0.14718589 -0.20231512 0.12451865 0.076272205 -0.018462561 0.025916167 0.030587697 -0.07172815 -0.095388345 -0.106829055 0.081584 0.0433786 -0.051847156 -0.07666531 0.036257666 -0.06577841 -0.030981783 0.031488847 0.23061803 -0.092411876 0.022601197 0.09809652 0.04809375 0.11072142 -0.10353247 0.0651309 -0.0013922962 -0.28472054 0.1801403 0.19038145 0.07394168 -0.11261417 -0.15341274 -0.2380395 -0.15101185 0.024200004
981 0.021361576 -0.014475475 0.37686983 0.0070901513 0.09201694 0.060452867 0.006435611 -0.19566599 0.1545346 -0.11742964 -0.05198447 0.045296382 0.14287093 -0.15179169 0.34416315 -0.14291064 0.13612404 0.009563914 -0.14904225 0.034779664 0.094042264 -0.018923294 0.12224521 0.033908837 -0.014426429 -0.37897712 -0.00048692062 -0.16657849 -0.002744388 -0.17499787 -0.111821316 -0.12562151 -0.25669417 -0.15233698 0.034167413 -0.04692922 0.24137774 0.038829904 -0.105967976 -0.11416395 0.09272152 0.08320753 0.23110682 -0.015883168 0.16428976 0.08771444 0.118268244 -0.028147338 -0.10222142 -0.33004802 -0.025823629 0.2256361 0.0741617 0.15324458 0.111959785 -0.18380892 0.067602195 0.12591974 -0.30627075 0.062393215 0.13144135 -0.11465709 -0.02120622 -0.09728713 -0.19901533 0.033563007 -0.11241508 -0.31167966 -0.22710688 0.008131388 -0.00043344262 0.036520276 0.28007233 -0.15039685 0.26333058 0.14680465 0.22350155 -0.21698876 0.1754324 0.044548735 -0.111872375 0.05296088 -0.17639108 -0.13468361 -0.023924997 0.20474982 0.22537225 -0.01451882 -0.1289618 -0.14201114 -0.09049972 0.07216108 0.07392603 -0.1802965 0.15316334 0.05613846 0.13242845 0.07611798 0.074373595 0.048406977 -0.06552851 -0.03529117 -0.012859286 0.012331003 0.0667213 -0.12607849 -0.17690095 0.045324653 -0.027321232 0.062053632 0.37171084 0.13326707 -0.1439047 0.1730648 0.0954429 0.19921365 -0.08916554 0.013904051 0.060063783 -0.15869115 0.08462711 0.024545526 0.15775189 -0.009364642 -0.028676769 -0.19608288 -0.060140844 0.031617068
843 -0.053283334 -0.021873884 0.24443117 0.004651473 0.075169004 0.028286552 0.021665014 -0.27996957 0.056631934 -0.12518117 0.03769496 -0.09920288 0.207755 -0.19640225 0.103239305 -0.34080812 0.14433257 -0.021739088 -0.12134112 -0.009837179 0.24225484 -0.07878075 0.11173305 -0.13404594 0.020103471 -0.23262353 0.08800569 0.032339625 -0.053972162 -0.24447434 0.11709723 -0.16940264 -0.45499215 -0.049596537 -0.040921 0.0031424316 0.33104375 0.0005933913 -0.13120577 0.04684978 0.090179406 0.1992351 0.15115897 -0.07112105 0.015395642 0.2617811 0.17804575 -0.19750993 -0.048224084 -0.13241783 -0.13183029 0.11689485 0.07488581 0.2545562 0.13495933 -0.2743905 0.01126989 0.11670215 -0.085837685 0.019171633 -0.0014836078 -0.088781305 -0.14137177 0.009254253 -0.019900456 -0.05763133 -0.25687194 -0.08330217 -0.23281881 0.014879521 0.20364946 0.03160691 0.10915157 -0.019916998 0.20037512 0.12755738 0.10704405 -0.2382946 0.19910312 -0.16940263 0.04818576 0.11200212 -0.10922789 -0.2621908 -0.08364976 0.24074571 0.09592153 0.13709432 0.09267512 0.010898036 -0.14823313 0.18880239 0.17526284 -0.3344463 0.0414803 0.011741845 0.00085564516 0.005025345 0.13342741 -0.09292655 -0.047970153 0.06751472 0.10491887 0.07676685 0.036372107 0.03605616 0.13868554 -0.0058704168 -0.10039845 0.0048905965 0.3331556 0.0488822 0.06691213 0.14291258 0.21526445 0.09470538 -0.20548025 0.0022553685 -0.09844027 -0.24057953 0.09163038 0.031094097 0.22546946 0.004567013 -0.079345405 -0.14408167 0.039801512 -0.08198647
462 0.066979446 -0.057998512 0.47472897 0.054425072 0.015871128 -0.029529976 0.15018573 -0.23720685 0.0076915813 -0.09598443 0.09462255 -0.0006934142 0.22036068 -0.004415971 0.31320202 -0.2643655 -0.1463 -0.036139656 -0.26627913 -0.17550643 -0.02739857 -0.14072838 0.021561716 -0.03563755 0.054957975 -0.14523435 -0.1413757 -0.17009428 0.022057462 -0.060110424 -0.1627567 -0.22487803 -0.30553204 -0.22503294 -0.13894293 0.15836354 0.20265463 -0.13288416 -0.17010294 -0.052908245 0.033458546 0.26850536 0.13371338 -0.054140862 0.18749028 0.07363542 0.16682136 -0.12315724 -0.11361857 -0.13508347 -0.21295501 0.33017272 -0.047104847 0.24897188 0.09864418 -0.09157336 0.040500738 0.10636288 -0.03434775 0.1262832 0.20869094 -0.2994161 -0.11009802 0.030969212 -0.21689188 -0.033017714 0.01711704 -0.22280937 -0.04010914 0.08021894 0.030837545 -0.031048942 0.176811 -0.08732074 0.48631728 0.24934763 0.041750748 -0.18262626 0.1544921 -0.00972764 -0.12676701 0.31098697 0.009051491 -0.2030771 0.23959014 0.07821343 0.05744203 -0.01898302 0.1032941 0.11754419 0.114910856 -0.019188914 0.18727323 -0.19455679 0.2713742 0.2979829 0.150402 -0.022292782 -0.08191258 -0.080817245 0.08325594 -0.005542769 0.06578387 -0.0576867 0.10057869 0.0147203915 0.15640336 0.05256508 -0.22986603 0.16547759 0.21986972 0.2413735 -0.16178581 -0.085902 -0.08137686 -0.009858351 -0.2102746 -0.032856163 -0.023891537 -0.06753693 -0.053696446 0.16727625 0.136062 -0.0019511456 -0.2339589 -0.025044497 -0.18803549 0.062105887
309 0.09671812 -0.11553587 0.30076972 0.015448201 -0.12281079 0.0818036 0.059615888 -0.18365754 -0.028486053 -0.19438337 0.07361592 -0.075278915 0.13576697 -0.1314194 0.24091764 -0.32634005 0.15095693 -0.09951736 -0.039544363 0.042289235 0.051144242 0.029713355 0.0833103 0.0010969951 0.02871907 -0.21301596 -0.038879234 -0.07576345 -0.021359483 -0.14243273 0.089217015 -0.10021603 -0.25449187 -0.101751335 0.109189436 0.111386254 0.09900014 -0.100053325 -0.06821861 -0.03663604 0.11658954 0.15807682 -0.026968507 0.02159104 -0.0011064839 -0.071314834 0.1793594 -0.17377092 -0.15613951 -0.1327715 -0.17821208 0.13531701 0.12075272 0.28529507 0.122815855 -0.12282737 -0.098862104 0.11686504 -0.12960973 0.11358495 0.08500407 -0.12889136 -0.083922975 -0.12210359 -0.039917845 -0.16977862 -0.11148068 -0.17187431 -0.12546514 0.19065101 0.026603369 0.017420344 0.16876662 0.10434643 0.28007331 0.058827482 0.029386066 -0.021317376 0.31295916 -0.08812638 0.068917386 0.16615197 0.09615916 -0.1067053 0.1962241 0.15693484 0.21670981 0.037924666 -0.0891382 0.07569234 -0.3184755 -0.07225046 0.074588634 -0.2458506 0.08639986 0.09841923 0.21728708 0.118546955 0.09710646 -0.11964477 -0.07658604 -0.06433758 -0.059253003 -0.006205943 0.08006513 -0.12147022 -0.10663577 0.062036388 -0.14185129 -0.0059658512 0.3108546 0.03574284 0.16644119 0.10937813 0.06269375 0.15637918 -0.01170823 -0.045386124 0.11082377 -0.23357843 0.025325747 0.095455945 0.09772046 -0.14349644 -0.12762544 -0.120216094 -0.10983505 0.02370329
471 -0.02929309 -0.067578815 0.28589165 0.09612737 0.076628506 -0.0063197208 0.10679801 -0.09975043 0.03983471 -0.059701547 0.116558835 -0.009064022 0.09777881 0.010539547 0.27875695 -0.15115881 0.04594384 0.050908152 -0.058663554 -0.04770173 0.032542605 -0.14759092 0.101027764 -0.05564661 0.08958025 -0.13341185 -0.1035979 -0.0059840824 -0.051926035 -0.056460135 -0.17298019 -0.09363491 -0.2489393 -0.05291372 -0.04741777 0.21820724 0.16528991 -0.08340666 -0.19609922 -0.04481765 0.11396567 0.12683704 0.19893995 0.08790837 0.24971248 0.07318496 0.090281725 -0.20338269 -0.10812829 -0.25683758 -0.13833214 0.08683208 0.08008694 0.16986063 0.18626998 -0.095405854 0.065779105 0.10334234 -0.00048428943 0.020206902 0.2512192 -0.12971409 -0.07479679 -0.054420657 -0.0680838 0.01947461 0.022087676 -0.26591358 -0.19890384 0.090569735 0.10374295 -0.009275688 0.20733245 -0.0031309614 0.43655366 0.11161227 0.15612002 -0.091523096 0.29515383 -0.09090979 -0.12858145 0.20357272 0.121369444 -0.17358391 0.20194925 0.13282812 0.10455268 0.11412399 0.032719143 0.048611574 0.021827664 -0.011118428 0.118565075 -0.18621615 0.21141356 0.18927287 0.15693985 0.08074567 0.015501433 0.007932032 0.096795395 0.014555261 0.05874456 0.06289845 -0.060918234 0.05387225 -0.024934191 0.043645356 -0.18206316 0.18507603 0.22844867 0.124283455 -0.136705 0.07267383 0.06960475 -0.023717891 -0.014523262 -0.07247552 0.05704248 -0.1246425 -0.04622211 0.16987912 0.12927891 -0.08501697 -0.1845611 -0.16268216 -0.2512906 0.0042535225
109 0.082064 -0.12946999 0.29562512 0.023891984 0.17144316 -0.038611993 -0.020024769 -0.34797838 0.06004493 -0.18237 0.06499442 0.045768134 0.12831749 0.028879989 0.13502693 -0.22415087 0.10884428 -0.076254785 -0.26816127 -0.10041029 0.24283652 -0.22154945 0.017128963 -0.060333617 0.053348396 -0.2367433 0.04884492 -0.20309073 -0.045672152 -0.000439272 0.0047854646 -0.089821585 -0.2617217 -0.042828776 0.09632843 0.25376773 0.18949951 -0.11008734 -0.19174504 -0.02272931 0.11645279 0.17460407 0.2534865 -0.25085837 0.2311247 0.2760561 0.23806427 -0.14388174 -0.25056902 0.07849192 -0.07100518 -0.062029954 -0.11902604 0.07846386 0.050769188 -0.17102088 0.06305419 0.17162618 -0.09734071 -0.06610615 0.16904265 -0.24662372 -0.10893662 -0.25684372 -0.08696873 0.17337444 -0.065406226 -0.14616102 -0.011768562 0.09248443 0.11303175 -0.01119673 0.037577566 0.00060780405 0.23690335 0.06066765 -0.040191498 -0.15186228 0.31751627 -0.18102707 -0.09374551 0.37466004 0.1737661 -0.22473694 0.11865676 0.27333248 0.033163827 -0.047914453 -0.15957892 -0.08422081 0.021685747 0.121784955 0.000945111 -0.4327355 0.27112922 0.13487692 0.09090705 0.06305782 -0.114312775 -0.19694303 0.00565653 0.008684549 0.085261725 0.14440382 -0.14708586 0.12621707 -0.024142101 -0.09406899 -0.13825296 0.26557425 0.2115382 0.05031858 0.13869035 0.051117934 0.118514955 0.16959955 -0.07011725 0.045932077 -0.12623598 -0.22641186 0.09118136 0.034879584 0.059590418 -0.14538161 -0.021628926 -0.17738625 -0.17561403 0.12404036
805 -0.028306032 -0.24243234 0.30215254 -0.08341059 0.126914 0.09727219 0.020145884 -0.091332 0.023978483 -0.0034845443 0.19337748 -0.15261543 0.12944672 -0.12452729 0.2055001 -0.2459647 0.072058156 -0.018879896 0.045490097 0.15267578 0.1838229 0.014358724 0.18503326 0.010466042 -0.015436775 -0.06053013 -0.060072023 0.022075662 -0.054841675 -0.024625646 -0.024408044 -0.12456456 -0.36307654 -0.21216372 0.24831155 0.19097878 0.2098484 -0.023548748 -0.20585102 -0.037311208 0.025951266 0.24023023 0.16978723 0.070581384 0.023645945 0.014850023 0.3385915 -0.14722607 -0.090622686 -0.05933331 0.011593778 -0.015723774 0.044462394 0.34856963 -0.077899106 -0.21092732 -0.01589738 0.12761882 -0.1320033 0.121679515 0.20312122 -0.14647296 -0.10339703 -0.19425493 -0.00794838 0.15150233 -0.20263633 -0.33629417 -0.028598173 0.13053901 0.22288997 0.1390561 0.18754068 0.009824166 0.3442704 -0.01459191 0.12809525 -0.17333609 -0.0885683 -0.07565218 0.031792823 0.12395087 0.083614364 -0.20290539 0.005802487 0.19667578 0.062342145 -0.12428701 -0.13184233 0.00794638 -0.09329546 0.0023443163 0.13989791 -0.21521306 0.16557367 0.2094765 -0.04281556 0.018015468 0.03704514 -0.033913102 -0.09688353 -0.063639574 -0.043656155 0.05777641 -0.07845185 -0.045262713 -0.049790103 -0.21339041 0.05248043 0.007531038 0.3456529 -0.082961194 -0.026830627 0.08379377 0.060696535 0.22392161 -0.11858207 0.14702518 -0.03452075 -0.1904335 0.027665015 0.1402058 -0.021861443 -0.034773283 -0.13327824 -0.107397534 -0.096194826 0.15845141
964 -0.016422303 -0.11491466 0.39951515 0.061296996 0.08196117 0.20435005 -0.030874835 -0.25491387 0.052573007 -0.15595293 -0.033413153 -0.058754634 0.19871397 -0.05510017 0.25789142 -0.228029 0.080397524 -0.08147715 -0.086624645 -0.040434364 0.037442677 -0.08924079 -0.073867686 -0.03025385 0.0089980615 -0.22215962 -0.066480264 -0.16913989 -0.050833184 -0.10679667 -0.054125544 -0.17782184 -0.33514675 -0.0746143 -0.0051081446 0.040302545 0.17759217 -0.023403592 -0.14077722 -0.08508677 0.11380962 0.17554049 0.103007466 -0.018097986 0.043717872 0.01398484 0.15264691 -0.1733307 -0.13107435 -0.13405481 -0.04454349 0.16092405 0.05330997 0.26956582 0.051901534 -0.16616409 0.009393316 0.11471752 -0.16428868 0.16038127 0.1774204 -0.13708097 0.05853448 -0.028340882 -0.058878537 -0.06498483 -0.084165 -0.24101987 -0.18684301 0.07565344 0.12430098 0.11551371 0.10609714 -0.043915138 0.29583028 0.025980402 0.11133602 -0.087491184 0.21979801 -0.020276839 0.016882228 0.16948058 0.01695421 -0.15031256 0.09675168 0.18799774 0.06224864 0.0047042025 -0.086216144 0.044848163 -0.062364835 0.03402683 0.12371195 -0.06204512 0.1529458 0.25061134 0.020008525 0.068731 0.07565906 -0.004601775 -0.043891028 -0.11690431 0.034958605 -0.032191675 -0.007902503 0.03793573 -0.04569044 -0.060132172 -0.18103933 0.22552988 0.32318884 0.026188185 0.02996202 0.08755395 0.15098196 0.049477715 -0.13507433 -0.08364944 0.060382217 -0.23200902 0.016860597 0.19942655 0.123359784 -0.06822783 -0.18239093 -0.14287362 -0.1280022 0.025858378
120 0.002339011 -0.111677036 0.40892422 -0.04318206 0.09853494 0.1707917 0.08902847 -0.15603212 0.07869119 -0.0697812 0.025954703 -0.18899946 0.0889702 -0.16310735 0.22545518 -0.24641666 0.06632868 -0.10144975 -0.14332353 -0.008948681 0.18690944 -0.13079236 -0.08558433 0.030320533 0.08640145 -0.22267203 -0.14104417 -0.17680831 -0.112644434 -0.044150505 -0.040333644 -0.13577218 -0.3582066 -0.17876679 1.4026224e-05 0.0904749 0.12976678 -0.041597046 -0.08011634 -0.15008146 0.04501691 0.27998137 0.10179369 -0.009709731 0.09161099 0.16272281 0.15817097 -0.04914664 -0.19288772 -0.12380083 -0.10053161 0.30003473 -0.006977763 0.1923438 0.14161225 -0.19423866 0.0028068728 0.14926173 -0.043931816 0.08590072 0.04718315 -0.15348674 0.046722505 -0.126067 -0.030837063 0.018303076 -0.06699001 -0.17895247 -0.17855853 0.09624219 0.14734085 0.09643498 0.16560878 -0.12369944 0.14253609 0.14616579 0.17469352 -0.12596297 0.29022107 -0.22134727 -0.02778751 0.19885342 0.05779764 -0.2543539 -0.055257764 0.17326145 0.15712501 0.0967535 -0.19609708 -0.073494606 -0.06250096 0.13147336 0.011386714 -0.20364544 0.26785243 0.07621595 -0.06998584 -0.032069676 -0.04986871 -0.046340972 -0.091369934 -0.023817444 0.09287672 0.06922821 -0.048008617 0.022230612 -0.058723044 -0.075057946 -0.2325702 0.15583037 0.30605406 0.113569684 0.0628884 0.17628668 0.047385637 0.13457866 -0.16619118 -0.006769461 -0.066246614 -0.19134732 0.039679237 -0.043490045 0.1162896 -0.0618438 -0.13775945 -0.3032258 -0.20286359 0.06447903
760 0.038336813 0.012997827 0.4087294 0.13296214 -0.08040035 -0.13870001 0.14948058 -0.1991706 0.009676671 0.04952904 0.12585254 -0.031065047 0.2114726 0.05622984 0.2544486 -0.23403919 -0.07146409 -0.008301273 -0.17188165 -0.1715712 0.010738225 -0.29973763 0.060500074 -0.037348907 0.12727354 -0.21210508 -0.09898847 -0.05246513 -0.01613984 -0.035215687 -0.09284161 -0.27138507 -0.22375236 -0.18717337 0.054724526 0.15087384 0.22648802 -0.06373061 -0.17030905 -0.095593326 0.04640603 0.13131939 0.21874796 -0.026200818 0.31424627 0.049450416 0.10153853 -0.17020728 -0.088528745 -0.1979917 -0.28164396 0.31478122 -0.01656541 0.17912686 0.1696191 -0.11907989 0.02370388 -0.010614689 0.012486955 0.0588217 0.27197158 -0.2059484 -0.11268814 -0.014004004 -0.1072096 0.042827845 0.08465854 -0.22685981 -0.12557805 0.08763343 0.05826692 0.037693385 0.09557019 -0.038856063 0.3345604 0.11255917 0.19659165 -0.07029657 0.30303445 -0.09071316 -0.10213601 0.24946594 0.12306759 -0.33043265 0.2910395 0.093289666 0.089607 0.11203577 -0.05852526 0.062494885 -0.014265748 -0.03257385 0.06596592 -0.21033874 0.16836981 0.19750598 0.18220235 0.05719694 -0.08062099 -0.107536994 0.06203413 -0.059838135 0.059575185 0.0029820718 0.045067452 0.048805084 0.05965842 0.012466988 -0.17801392 0.16703527 0.24428412 0.1481449 -0.06532931 -0.01078844 -0.07332956 -0.0053644693 -0.14353447 0.009234151 0.07768153 -0.115839444 -0.07894784 0.15054208 0.057249084 -0.017909225 -0.17227732 -0.14757167 -0.2680427 0.053486183
498 0.0074489987 0.024812182 0.21526657 -0.09000849 0.099572755 -0.044607442 0.0052862065 -0.2784951 0.1147537 -0.11799318 -0.01700167 -0.0570742 0.19650218 -0.18253513 0.15813138 -0.28801364 0.13965991 0.09921015 -0.14465387 -0.0779041 0.19219515 0.0018795616 0.0020726363 -0.10050021 0.04080165 -0.22076078 0.025996467 -0.018868595 -0.11338564 -0.16010183 0.086487986 -0.18178016 -0.3506034 -0.09758915 0.033035643 -0.039061386 0.35368472 -0.08897704 -0.15817963 -0.0095281955 0.12548567 0.22242294 0.081019886 -0.1097838 -0.039688665 0.24751504 0.16670504 -0.24625342 -0.094487935 -0.16222914 -0.13132 0.16847767 -0.03630084 0.2799679 0.09083191 -0.19810449 0.044304535 0.17050496 -0.049558077 0.03382729 0.10231882 -0.029497143 -0.083803624 -0.05868598 0.01467262 -0.056037277 -0.29300743 -0.13913026 -0.20910344 -0.026502736 0.21105935 -0.044195876 0.14322004 -0.008387299 0.27468967 0.20104708 0.14435361 -0.11581283 0.2235705 -0.09416804 -0.013457849 0.01534794 -0.050450116 -0.13173616 -0.037669804 0.19473773 0.040580355 0.12217052 0.05906865 -0.024351403 -0.08032509 0.0658614 0.11321739 -0.32801968 -0.006605013 0.04654224 0.105123065 -0.0042924285 0.063883714 -0.09268022 0.016154798 0.09160888 0.14953019 0.07427103 0.052670393 0.061634243 0.09121975 0.019403957 -0.19530557 -0.06419362 0.31240454 0.122747034 0.15207286 0.17479217 0.20926496 0.116348475 -0.13331687 0.0056872624 -0.12397283 -0.14232504 0.17066975 0.096472666 0.1709908 -0.013379601 -0.06719076 -0.2068326 0.03143205 -0.1334694
174 -0.065691404 -0.18896848 0.44893745 0.16510044 0.10897296 0.21878786 -0.054204214 -0.16723628 0.059675347 -0.21069969 -0.12365444 -0.0012694063 0.10302123 -0.06423136 0.17267288 -0.06265394 0.10901215 -0.07514446 -0.13798374 0.051346395 0.10861877 -0.08621696 0.062311064 -0.09174554 0.069196746 -0.08485118 -0.06753872 -0.1555084 0.015300816 0.0058044707 -0.09690096 -0.17989856 -0.3077162 -0.13043222 -0.03706358 0.06597428 0.11647042 -0.07305612 -0.24107802 -0.13189387 0.21467064 0.09465658 0.16265501 0.022499757 0.061496392 0.05084711 0.14248435 -0.09245518 -0.16670316 -0.0890173 -0.088435315 0.14443088 0.12447173 0.09872912 0.1252484 -0.09258095 0.060052864 0.15861061 -0.16128182 0.1328442 -0.011559564 -0.20917012 -0.021262795 -0.08733894 -0.13800791 -0.14659783 -0.14714578 -0.10366492 -0.17556322 0.051852547 0.18085149 0.111341216 0.1777681 -0.03340591 0.10356347 0.0910971 0.1328779 0.0039647357 0.22163343 -0.13080126 -0.011490793 0.23631254 -0.024536451 -0.14991195 0.022738468 0.34546643 0.074651346 -0.015446028 -0.20456247 0.0032769404 -0.3449812 0.024327554 0.13167368 -0.2841817 0.07307939 0.070047505 0.074846916 0.10487497 0.077104405 0.037412245 0.0015623735 0.016099475 -0.021772454 0.17132889 -0.029990505 0.039412916 -0.035701074 0.07470712 -0.22116128 0.08782798 0.30716044 0.0035749574 0.11172256 0.03280394 0.09368579 0.18547173 -0.12202465 0.0038679827 -0.05624332 -0.3172922 0.1455369 0.0066186995 0.098410316 -0.124252126 -0.1013602 -0.18303348 -0.087661274 0.07616325
150 0.09023488 -0.19365622 0.29808098 0.15544134 0.014574397 0.14063007 0.12197095 -0.05446819 -0.053096563 -0.061231527 0.006560502 -0.0060869274 0.1562425 0.08955446 0.16841662 -0.16102411 0.079062566 0.060907092 0.089722656 -0.05233352 0.12759978 -0.17779458 0.054515302 -0.095028885 0.07193439 -0.19409025 -0.10682506 0.17190373 -0.2378973 -0.15921146 0.08226372 -0.21764304 -0.24520609 -0.18748662 -0.03927369 0.06212766 0.25463527 -0.121181086 0.0003404846 -0.03178969 0.12769446 0.17653176 0.07838427 -0.09779546 0.12035116 0.14426917 0.21158907 -0.1868315 -0.0022158667 -0.18651088 -0.030949429 0.08449461 0.0825028 0.3411162 0.09815799 -0.24184541 -0.011990679 0.08409862 -0.22052008 -0.024083586 0.08977309 -0.07840515 -0.0008981922 0.045615304 -0.11074651 -0.018420804 -0.13682051 -0.31986645 -0.30864298 0.14551716 0.24561276 0.12681173 0.16216727 0.057113077 0.21464777 0.10625271 0.240924 0.048198637 0.17934172 0.0065385574 0.068781324 0.08787406 0.05835616 -0.37158766 0.022251157 0.21009022 0.09736515 0.07468166 0.018216 0.013835314 -0.119187236 0.116459444 -0.011542507 -0.13671099 0.32115445 0.26171458 0.03420147 0.14374723 0.20480263 0.036624786 0.12507802 0.073445514 -0.064349055 0.09656362 0.030165633 0.03309286 0.048484262 -0.05558244 -0.1831016 0.2246848 0.4694911 0.13292858 -0.05316648 0.044143286 0.24427532 0.07466082 -0.14139871 0.12240052 -0.07358577 -0.09972756 0.1585037 0.1935398 0.052264176 -0.11926213 -0.13794197 -0.13720593 -0.15079801 -0.079996146
348 0.0035700058 -0.1574161 0.42017806 -0.15966097 0.06855209 -0.0010217729 0.025670849 -0.06806371 -0.023041 -0.058330532 0.02967009 -0.11350158 0.14247978 -0.12797843 0.19547893 -0.11166952 0.11277582 0.11046437 -0.19627789 -0.028115625 0.20816481 0.07305683 0.17793375 0.03205268 0.11210146 -0.19623975 -0.045374256 -0.15493037 0.055836357 -0.0030895013 -0.05745061 -0.174194 -0.3343297 -0.2184253 0.16671506 0.07905826 0.24713741 -0.053479046 -0.1839588 -0.07144553 0.15470284 -0.008813367 0.25918907 0.25208527 0.3017615 0.047823403 0.3113173 -0.07602832 -0.16047354 -0.11815524 -0.15582414 -0.054321535 0.23414855 0.27049524 0.1609111 -0.041400313 -0.06515978 0.06402909 -0.10587492 0.1279231 0.11574306 -0.17915316 -0.030017465 -0.12768734 -0.04202435 0.03148726 -0.13142705 -0.19610022 0.03638389 0.09051702 0.2518393 0.07981454 0.15944214 -0.008290015 0.4119041 -0.045971073 0.12710227 0.024358673 0.16042882 -0.04883742 0.002280806 0.021252397 0.07038426 -0.184583 0.08926021 0.16099147 0.10924959 -0.100810684 -0.21209815 -0.022135498 -0.16436957 -0.010452526 0.17153125 -0.2920867 0.070106566 0.049095407 -0.17337595 -0.052698597 0.09666441 0.009132099 -0.18076251 -0.19728754 -0.07283276 0.024810418 0.02178479 0.032711327 0.05973322 -0.01947211 0.06797497 0.025900772 0.19158083 -0.0413704 0.10299535 0.0033193938 0.036226813 0.22082709 -0.2453728 0.0717668 0.044625748 -0.31988522 0.05828364 0.1649322 0.18801421 -0.0023932995 -0.21331878 -0.1575506 -0.102423094 0.09682256
856 0.025997665 -0.25532672 0.48190773 0.12764712 -0.037977006 0.17953537 0.013370356 -0.27370456 0.01752073 -0.16503522 0.0043070335 -0.048009835 0.11332486 -0.09109246 0.14562176 -0.23936415 0.06231243 -0.061707135 -0.12931424 -0.022121886 0.09741958 -0.07911935 0.080632865 -0.025990173 0.10137383 -0.17333302 -0.05468574 -0.09169705 -0.14700861 -0.06957644 -0.09396494 -0.29929522 -0.36515296 -0.16633224 0.062303767 0.16926199 0.14717613 -0.12458745 -0.18528973 -0.017261859 0.056386754 0.2013255 0.19161338 0.035593275 0.1058864 0.09134027 0.21920864 -0.09800227 -0.10675327 -0.008009985 -0.0942167 0.16632144 0.07401483 0.26647335 0.06274709 -0.17866696 0.026783984 0.20974329 -0.20625333 0.1280623 0.1483751 -0.23742458 0.04569692 -0.04598819 -0.06617078 -0.012853434 -0.06589057 -0.22954899 -0.16607858 0.12082499 0.17438866 0.11342529 0.11020889 -0.01812828 0.4132651 0.13831662 0.08667308 -0.096035674 0.15247174 -0.022956338 -0.016329177 0.19503228 0.022698654 -0.20422602 0.05568325 0.26526788 0.15531334 -0.036349148 -0.10715281 0.015583706 -0.123787306 0.014822785 0.021541681 -0.195635 0.17808835 0.27325514 0.0050485325 -0.00021500367 0.068494 0.035319444 0.032652505 -0.12850054 0.05580624 0.03226173 0.05510422 -0.01330162 0.055035036 -0.106328875 -0.18855849 0.071379386 0.34993696 0.09981193 0.035772428 0.028775191 0.072245836 0.22312585 -0.09519051 -0.074991174 -0.0015851839 -0.26679915 0.08893179 0.092029385 0.14815247 -0.023974054 -0.09433576 -0.2624346 -0.17284107 0.14727674
115 0.03224841 -0.2091047 0.2820448 0.010863763 0.08914808 0.03984608 0.0921018 -0.15399104 0.07097724 -0.12866142 -0.09267615 -0.08458702 0.26349795 0.010261584 0.21263057 -0.36732528 0.0043790713 -0.04194877 0.009757658 -0.072873734 0.09942253 -0.07236878 0.09516921 -0.027055958 0.06513687 -0.27391377 -0.05178326 -0.052140772 -0.1290656 -0.1617427 -0.030028515 -0.13057528 -0.3172429 -0.09035241 0.06038763 0.081399046 0.33698848 -0.10125778 -0.120960206 -0.018482963 -0.033273533 0.26395229 0.27060166 0.014718287 0.18390678 0.15088075 0.13085903 -0.21117394 -0.082450934 -0.22491074 -0.13685048 0.116631396 0.001547978 0.37121147 0.19806671 -0.27400348 0.0687418 0.043996755 -0.1296435 0.04955121 0.013434621 -0.10595768 -0.007907964 -0.03503764 -0.07349795 0.043784745 -0.004795146 -0.23621455 -0.11406786 -0.016865 -0.043951947 -0.064894184 0.050147437 0.10053856 0.2908928 0.09432979 0.30520108 -0.18068796 0.15357567 -0.04917268 0.09353175 0.16879915 0.05602907 -0.1066592 0.2508085 0.12565073 0.15258703 -0.122827075 -0.049871262 -0.13645631 -0.07513016 0.08110094 0.15574326 -0.14992605 0.14380413 0.102238744 0.0889747 0.13699524 0.061647147 -0.12836507 0.0032762745 -0.08939701 -0.0944847 0.059477627 0.034449052 0.10914385 0.06868357 -0.08753497 0.012544052 0.0934545 0.36789334 0.013273193 0.012576829 0.09793027 0.15418747 0.19938506 -0.049360406 0.028669922 -0.08231598 -0.31223866 0.12558879 0.07641543 0.082028255 -0.041795015 -0.07638371 -0.24912442 -0.063123904 0.03678231
706 -0.03756592 -0.16665281 0.32644224 0.06594092 -0.020443879 0.037328906 0.06188292 -0.2868255 0.0641927 -0.09252081 0.118655734 -0.06495963 0.12628353 -0.20239563 0.16462475 -0.10598255 0.059394807 -0.18865328 -0.081420586 0.03431114 0.108374655 -0.023582935 -0.014799072 -0.07495649 0.07443617 -0.27149287 -0.08742099 -0.025552502 -0.020810831 -0.1446998 -0.121864155 -0.19838974 -0.29255423 -0.077245526 0.021470627 0.12818182 0.15990415 -0.20907597 -0.09179536 -0.16006821 0.15039928 0.11549344 0.13471317 -0.03402097 0.1866524 0.068868764 0.21232529 -0.04669652 0.013554744 -0.124719866 -0.075382605 0.16207212 -0.0064911232 0.18070999 0.16839558 -0.18556012 -0.05102606 0.14553525 -0.14669536 0.12975483 0.1671816 -0.16260931 -0.06857885 -0.015392312 -0.07679328 0.0087534925 -0.084750466 -0.20013218 -0.14292935 0.09183312 0.06843825 0.06186366 0.1268445 0.13601358 0.33010933 0.072700575 0.17788999 -0.1235366 0.4023327 -0.014396486 -0.058181826 0.15091169 -0.037842926 -0.054336324 0.22315073 0.24237129 0.030516483 -0.04621223 -0.18035907 -0.016879138 -0.09735998 0.029103898 -0.089983985 -0.20761038 0.07198042 0.17227991 0.09296779 -0.14628248 0.04595856 0.12462407 0.10600436 -0.07405942 -0.08941504 0.13304244 0.056964442 0.016532017 -0.08797401 -0.050497886 -0.14698821 0.046915848 0.4026729 0.04885712 0.044295985 0.0458042 0.15071996 0.05177733 -0.17846714 0.026188135 -0.0386716 -0.1832635 0.09272683 0.062706225 0.15574206 -0.04696516 0.034491714 -0.2881518 -0.19913733 -0.0064238673
770 0.1714993 -0.19495647 0.24323238 -0.051551014 0.1034333 0.23111024 -0.07231831 -0.2178253 -0.018056277 -0.045205988 -0.02833872 -0.06730503 0.060542807 0.047480747 0.19355285 -0.14946873 0.12410497 -0.027992932 -0.006579154 -0.059993215 0.011047913 0.026364382 0.023197928 -0.06364749 0.13840707 -0.31158477 -0.079039134 -0.18308216 -0.048432596 -0.09764257 -0.19375144 -0.23012139 -0.32539716 -0.1057017 -0.03916715 0.18248269 0.14530127 -0.12444682 -0.14739399 -0.15734956 0.15710002 0.10240922 0.27039105 0.058518253 0.197629 0.007592937 0.2144875 -0.14802918 -0.18212864 -0.13283238 -0.095925294 0.25959265 0.0322394 0.10022748 0.17245825 -0.103582524 0.05277712 0.12862095 -0.1345281 0.21589255 -0.1638375 -0.18945839 0.07848376 0.015770283 0.018620163 0.079971164 -0.17101194 -0.060315214 -0.037211772 -0.0034609907 0.09240007 -0.08292397 0.13975903 0.041090477 0.20501594 0.117277026 0.20801502 -0.121369846 0.20289771 -0.01480691 0.02526891 0.20891404 0.07345264 -0.04899882 0.18390243 0.23463804 0.106954224 0.016296975 -0.14250465 -0.040790666 -0.13874656 0.074002214 0.18037692 -0.24696702 -0.0077718124 0.0060577886 -0.016567053 -0.092999876 0.092261456 0.0833117 -0.16582358 -0.06760812 0.14746308 -0.0544608 0.032573212 -0.06068043 0.022797491 -0.0050138487 -0.26764512 -0.0020598848 0.21827744 0.008372725 0.0528613 0.06481817 0.03164789 0.054078672 -0.09247361 -0.078865744 -0.017747186 -0.361191 0.20375243 0.15588221 0.08074109 -0.11056021 -0.12875739 -0.28247336 -0.28329146 0.22838245
1024 -0.22593068 -0.13303825 0.24723884 -0.04249645 0.033904534 0.06739062 0.001553904 -0.2735526 -0.07155709 -0.1097702 0.08344541 -0.015595996 0.15453269 -0.045123894 0.22187406 -0.08632668 0.09271749 0.0086710835 -0.23145176 -0.07920718 0.11280861 -0.016800348 0.02710126 0.08942993 0.042643163 -0.16682172 -0.025980435 -0.112963304 0.019960955 -0.09589157 0.03866327 -0.17139389 -0.38980553 -0.12466225 0.043727413 0.13103072 0.24034362 -0.12085909 -0.2132238 -0.07623706 0.06550172 0.22814155 0.20987529 0.03850837 0.2618022 0.12979625 0.17472082 -0.10704377 -0.058455102 -0.008697052 -0.17602794 0.18588057 0.10702668 0.22453165 0.10140688 -0.20329782 0.18444438 0.021659339 -0.026971592 0.075125836 0.318171 -0.119931236 0.040452432 -0.095894404 -0.012723232 0.047371514 -0.13358748 -0.17428607 -0.0859533 0.14594232 0.109185375 -0.111469015 0.135983 0.09908087 0.34651285 0.06707533 0.13802765 0.0029263743 0.12252679 -0.15992859 0.03544854 0.1297965 0.08001086 -0.04232552 0.14547943 0.19095181 0.11461668 0.0025533647 0.0019751466 0.0622871 -0.27543396 0.10036673 0.14219527 -0.04905209 0.1263134 0.21664034 0.009446077 -0.0060421955 0.045208488 -0.15211962 0.12093383 -0.18513718 0.0032607673 -0.00953419 -0.0103567075 0.031627998 0.119866006 -0.14619954 0.026065348 0.23854066 0.4534208 -0.026333058 -0.058243796 -0.050197393 0.18017733 0.0026833494 0.0047479644 -0.030127432 -0.0075702113 -0.35865623 0.042457227 0.09539264 0.030193178 -0.05098061 -0.13537341 -0.27557084 -0.12148147 0.034094058
192 0.046616513 -0.030887248 0.30820957 -0.10885135 0.13891852 0.042956363 0.14414756 0.07421065 0.15586594 -0.0808701 0.21753964 -0.16434729 0.18270114 -0.07793317 0.10603562 -0.21007396 0.08090959 0.049465567 0.029677179 -0.051734347 0.09567871 0.102188624 0.26330093 0.11743794 0.21783844 -0.118133694 -0.14321372 -0.08790953 -0.08986686 -0.12561747 -0.19454126 -0.054569136 -0.3085134 -0.11805701 0.030559702 0.12118354 0.046953313 -0.09046814 -0.18686394 -0.11775237 0.14992604 0.2532883 0.10016468 0.13112386 0.27560407 0.046221685 0.21699485 -0.21904793 -0.24924865 -0.1577616 -0.14502206 -0.017087076 0.12271932 0.036708996 0.09983355 -0.11074321 -0.0707434 0.052131817 -0.08576751 0.08159043 0.17129637 -0.16627173 -0.09503505 -0.19668545 0.063134 0.045488484 -0.22287194 -0.10321233 -0.06965721 0.2235584 0.3330869 0.051137697 0.087762885 -0.06773771 0.38794562 -0.053807247 0.025997309 -0.056643754 0.2641948 0.03537034 -0.08326803 0.11966999 0.15190317 -0.23947974 0.22037111 0.13284573 0.17972197 -0.049852796 -0.14019883 0.049373247 -0.25879207 -0.11724359 0.040774785 -0.2298003 0.08656085 0.17794761 0.03535582 -0.16503586 0.0418498 -0.049866967 -0.1321103 -0.14275117 -0.055614233 -0.053802 0.069436796 -0.039830267 -0.005998961 0.009425804 0.014009162 0.021317251 0.17103313 0.100320265 0.19436492 0.042199947 -0.086187385 0.14047377 -0.19730371 0.18205754 0.11606267 -0.23818307 0.14316192 0.22986771 0.04156056 -0.08317437 -0.2689014 -0.1656191 -0.36847875 0.11482425
499 -0.08534637 -0.054395538 0.24656606 -0.045206733 0.061534982 0.20786071 -0.11190991 -0.22908384 0.028437007 -0.1453506 0.15749773 0.032723982 0.20524374 -0.17237724 0.29916668 -0.16436048 0.20132254 -0.040445104 -0.14368883 0.08387252 0.09270514 0.027428443 0.16573201 0.023292249 -0.030634923 -0.19515258 -0.050828163 -0.04020445 -0.023945589 -0.059414443 -0.050046496 -0.17214023 -0.39358002 -0.05929528 0.077579096 0.11444093 0.16444397 -0.048679315 -0.11852098 -0.11597417 0.070560426 0.22054775 -0.024328157 -0.09710886 0.13127229 0.06857089 0.13820906 -0.17489061 -0.16419841 -0.04059761 -0.16833124 0.21036403 0.14678267 0.1873615 0.10326914 -0.18909879 0.1561509 0.09931978 -0.15918766 0.007213493 0.21734285 -0.16378646 -0.016291408 -0.049665023 -0.1156955 -0.00762745 -0.29261285 -0.35311085 -0.2370151 0.065277904 0.051417332 0.01980743 0.16783434 -0.05611001 0.22412392 0.16665794 0.24380875 -0.08570695 0.2121733 -0.019380681 0.071808435 0.14495109 -0.058387198 -0.07724309 0.09945484 0.24289387 0.18592013 -0.02397679 -0.11211532 -0.011064489 -0.1205935 -0.0073692147 0.0339137 -0.20617393 0.16922618 0.2040664 0.012270727 -0.026095457 -0.01001691 0.16144085 0.010086729 -0.18365724 -0.07464253 -0.024525562 0.108403035 -0.068840034 -0.13502792 -0.05268935 -0.06028277 -4.0516876e-05 0.28033465 0.075271025 0.013642206 0.07233123 0.0496469 0.13266757 -0.117831446 0.1484693 0.065699056 -0.25751305 -0.016625006 0.024951477 0.048693236 -0.15689819 -0.07970438 -0.2163184 -0.2480256 0.10391781
119 -0.039486457 -0.07799492 0.3680497 -0.07329049 0.02882307 0.07586201 0.048031565 -0.27365902 0.019346159 -0.11662157 -0.029371032 -0.13900492 0.31631878 -0.22607897 0.14057474 -0.23213477 0.08168354 -0.015091538 -0.13466552 -0.0084963925 0.114592224 -0.14753038 -0.079901434 -0.007425239 0.05770757 -0.20342289 -0.0020512578 -0.04717645 -0.1888141 0.03545275 -0.009225524 -0.20301154 -0.17539158 -0.06265493 0.10468892 0.104065835 0.18009654 -0.27985308 -0.19085802 -0.15996908 0.16447386 0.15954518 0.16553956 0.008204547 0.11265871 0.108306125 0.13333157 -0.16894162 -0.08195588 -0.1538652 -0.08010581 0.22113205 -0.102316394 0.244445 0.050591245 -0.21100457 0.045563877 0.080934085 -0.10839947 0.09953621 0.12425941 -0.05514592 -0.052159507 -0.02902689 -0.056059822 -0.061011963 -0.11820168 -0.09335813 -0.07655098 0.027789116 0.11898578 0.04641343 0.13158967 -0.01992169 0.2949718 0.17978747 0.21405315 -0.03568116 0.20917949 -0.112629816 0.087023154 0.050285544 -0.009376844 -0.35955665 0.025500968 0.21772836 0.17549935 0.04555726 -0.13014482 -0.091956355 -0.17438182 0.13478905 0.052520745 -0.16551813 0.19337966 0.061027594 -0.0636938 0.110050336 -0.033640478 0.053069107 0.10686045 -0.11287746 0.07755643 0.0033924622 -0.072327025 0.04008564 -0.06952942 -0.067073636 -0.106207624 0.18605809 0.3579179 -0.061279237 0.08611552 0.09979127 0.111611165 0.16646633 -0.1742318 -0.03412725 -0.05353728 -0.17703004 -0.045806848 0.056106165 0.11393358 0.030349122 -0.2127573 -0.20445724 -0.2775039 -0.03767802
719 -0.02869578 -0.11984577 0.266979 -0.04151854 0.023080487 0.054253273 -0.0057550026 -0.16254167 -0.053431783 -0.1366156 0.052541673 -0.16786478 0.2562014 -0.19734299 0.1691677 -0.31094643 0.009956466 -0.08721297 -0.20671573 -0.08555882 0.026043044 -0.08046671 0.027086979 0.0009811823 0.18381146 -0.24530604 -0.09491271 -0.09928176 -0.094146565 -0.08687064 -0.020519339 -0.18571626 -0.2784167 -0.058457147 0.066636145 0.22165598 0.26527846 -0.15384129 -0.015367975 -0.07973132 0.12537152 0.19956054 0.0914896 0.0568133 0.120169096 0.21853204 0.13441873 -0.12876116 -0.17928463 -0.1776908 -0.20788734 0.14449875 0.03800661 0.2558282 0.1614719 -0.32626104 -0.06689775 0.14847654 -0.20176296 0.11972228 0.09720308 -0.039478052 -0.09702724 0.11136361 -0.13199013 -0.18391435 -0.035297316 -0.1649723 -0.26330197 0.13382962 0.20621054 0.024237582 0.07809298 0.08574993 0.3790634 0.051910643 0.14864147 -0.05024332 0.21661262 -0.10386704 0.08148924 0.07074216 0.015825579 -0.17916785 0.15836734 0.2538907 0.0732055 -0.09345764 -0.06905718 -0.02361904 -0.15977181 -0.041371718 -0.04238987 -0.21319692 0.10096628 0.13775134 0.0784248 0.05253131 -0.0500411 0.020909417 -0.0902954 -0.04971084 -0.23723239 0.030726952 0.10923458 0.074878484 -0.027332496 -0.11446306 -0.16326098 0.09611693 0.34949923 0.11341653 0.14252172 0.014631766 -0.15545893 0.22221279 -0.051530868 -0.044831477 -0.02890463 -0.07439116 -0.06934343 0.120049775 0.19035737 -0.012021384 -0.17055725 -0.28329757 -0.17534454 0.049432997
689 -0.034788486 -0.04641448 0.36887413 0.0031947517 0.053659867 0.1339309 0.01953041 -0.28169802 0.045678232 -0.05139377 0.011603329 -0.0352316 0.12739006 -0.115866974 0.15916392 -0.18042375 0.1232573 -0.04478224 -0.13859734 -0.018906057 0.0417199 0.010690304 -0.022496538 0.051388368 -0.012663731 -0.15955083 0.04202081 -0.03677251 -0.08224626 -0.026694484 -0.078568086 -0.15692787 -0.3453765 -0.15395617 -0.0009452609 0.06878368 0.19908153 -0.09196613 -0.21303077 -0.09516589 0.10981273 0.13018528 0.21274349 0.04989233 0.06945699 0.048460975 0.16450548 -0.048102736 -0.09536185 -0.07832959 -0.0181714 0.0859026 -0.0053521655 0.26924792 0.06494421 -0.18780664 -0.002586804 0.10992702 -0.017309299 0.18659362 0.1413731 -0.26579636 -0.0023615856 -0.074249834 -0.08882995 0.014036252 -0.08206969 -0.27840185 -0.12129199 0.13740325 0.1107276 0.0206582 0.13320172 -0.11191164 0.26681426 0.108816154 0.19902425 -0.029655091 0.20357823 -0.15649481 -0.06622128 0.17087212 -0.06290476 -0.21042822 0.02682333 0.35385066 0.16673551 0.0043441625 -0.035811376 -0.11128258 -0.17684469 -0.03770796 0.036969803 -0.17377985 0.12995285 0.24109256 0.009215598 0.2020794 -0.051113 -0.039177906 -0.025121197 -0.136357 0.0033456592 -0.103941746 0.056280393 0.014133149 0.03076171 0.008835584 -0.2030716 0.17353408 0.26158574 0.009281135 -0.027095519 0.1599315 0.006136205 0.03540393 -0.098646216 -0.10092614 -0.015687589 -0.17423575 0.04802713 0.11377285 0.22700971 -0.2111234 -0.06275933 -0.2396582 -0.15572824 0.09855937
628 0.20108482 -0.32093626 0.22625655 -0.124031454 0.086860456 0.27572045 0.22651811 -0.09977522 0.014675775 -0.03400699 -0.10417366 -0.023181852 -0.049927417 -0.043650694 0.21635076 -0.4141772 0.019977791 -0.120639496 -0.033123214 -0.15986374 -0.036428947 0.03270821 0.012642241 -0.15446366 0.17788477 -0.18003683 -0.075588636 -0.033924837 -0.04443893 -0.13781227 0.1905175 -0.07406773 -0.25554696 -0.18481703 0.05997544 0.04914879 0.14805889 -0.13346505 -0.29017204 -0.14334479 0.10231198 0.20807737 0.24562483 0.1404522 0.1971495 0.014326103 0.21134718 -0.062545344 -0.17682417 -0.17014217 -0.15744123 0.062254786 -0.058345515 0.3045228 0.11262974 -0.24487817 -0.009248714 0.11004216 -0.07058726 0.12376083 -0.06077543 -0.20543028 0.090397365 -0.09818968 -0.010327903 -0.19352448 -0.17123334 -0.22101024 -0.18357906 0.10028705 0.12082027 0.10032668 0.17562433 -0.04836947 0.3664328 0.1613075 0.060530916 0.0075432505 0.144879 -0.08601258 -0.042590242 0.15419787 0.035787784 -0.07623803 0.09415811 0.24374397 0.009815643 0.04127211 0.05784965 -0.10713448 -0.1996086 -0.090183966 0.06882325 -0.11350027 0.19360784 0.23703173 -0.072438754 0.06215978 0.11260431 0.025246525 -0.070990056 -0.11443726 -0.013378429 0.0022616654 -0.016453516 -0.06482542 0.10417782 0.11846907 -0.114231214 0.2807508 0.33447292 0.19777307 -0.0034191147 -0.0680074 -0.06249104 0.15260474 -0.15277739 -0.14571244 0.11136044 -0.23266546 0.13122968 0.116073534 0.10189735 -0.23305224 -0.083238296 -0.17447905 -0.21616603 -0.09342069
1091 0.08731462 -0.21490768 0.27245715 -0.12896366 0.17190467 0.27021626 0.057873685 -0.18207346 -0.017264307 -0.082478985 -0.008235088 -0.08537188 0.17906885 -0.11339387 0.17684266 -0.36694312 0.049988322 0.10554472 -0.11178669 -0.17554703 0.021587279 -0.0015907541 0.12568149 -0.00824589 0.14294383 -0.1895424 -0.11033366 0.05348746 -0.06676909 -0.09379249 0.03899375 -0.045089416 -0.35690245 -0.18757199 0.033953063 0.039143056 0.22158557 -0.13747154 -0.12952422 -0.15024765 0.17546983 0.23408224 0.17866127 0.13187356 0.116398 0.10978046 0.19229609 -0.06726321 -0.17597292 -0.07877467 -0.17745169 -0.02471105 -0.042210754 0.18913542 0.12550218 -0.29079297 -0.026640201 0.13509429 -0.14555298 0.23950835 0.04978688 -0.14135398 -0.05539247 -0.049884487 -0.08290581 -0.2651846 -0.15195388 -0.099820465 -0.21398106 0.08947012 0.15519576 0.048484746 0.15376905 -0.03486834 0.33170602 0.14282213 0.07907238 -0.12681504 0.12923077 -0.045604147 0.021593941 0.1607409 0.038569853 -0.13569365 0.08889176 0.22179697 0.07062512 -0.050625075 0.039054412 -0.060897645 -0.21455061 -0.047527034 0.06941306 -0.26709098 0.16825865 0.2810969 -0.03389351 0.02220328 0.17658018 -0.020204326 0.07598848 0.033722643 0.045183796 -0.02715266 0.0036703965 -0.069222935 0.21411836 0.01437838 -0.15850268 0.19231889 0.33473706 0.1083123 0.09436066 0.014986892 -0.02747861 0.18655664 -0.18519057 -0.1856471 -0.017884532 -0.13125572 0.19699731 0.1539165 0.15615338 -0.255288 -0.06612515 -0.24542722 -0.14926213 0.061282836
565 0.031084793 -0.2949935 0.35602745 -0.013015402 0.033784054 0.15667886 -0.026894754 -0.13798589 0.01838866 -0.28604463 0.020887628 -0.053773306 0.13619956 -0.096313156 0.028340828 -0.20755807 0.1491662 -0.1730895 -0.036701173 -0.023594767 -0.06236246 -0.025184777 -0.018514711 -0.057931393 -0.009670544 -0.19276863 -0.119653545 -0.061467037 -0.036657564 0.05961714 -0.08606962 -0.17102627 -0.15952536 -0.038337063 -0.122980066 0.13131782 0.0011784846 -0.0992481 -0.05787468 -0.008177536 0.112002775 0.18161601 0.17325595 0.06578257 0.17815056 0.10126181 0.27677473 -0.11187654 -0.20790632 -0.09463768 -0.12732972 0.015437857 0.061072696 0.13464072 0.16339059 -0.055095844 0.0155879175 0.0077844774 -0.16700217 0.062289644 0.12825592 -0.17765802 0.055371784 -0.11765227 -0.18092205 -0.011874001 -0.0020595642 -0.10722382 -0.12132821 0.10128942 0.15772805 0.0035292318 0.07118848 0.07618817 0.3124979 -0.04833489 0.04872629 0.0034382713 0.20184202 -0.1356716 -0.041050732 0.10543595 -0.012655723 -0.24214594 0.073155336 0.033635575 0.12481143 -0.008729001 -0.17004026 -0.04581262 -0.12891676 0.060141694 0.03192056 -0.16304052 0.19035222 0.24520685 0.019937748 -0.09178968 0.12070261 -0.10065512 0.09421497 -0.040544745 -0.05083064 -0.013503577 -0.1782673 -0.12586918 -0.042965315 -0.09900149 -0.098400585 0.16825762 0.28527108 0.19939983 0.056324378 -0.17680997 0.11230828 0.169401 -0.12598518 0.043053146 -0.062277853 -0.18301444 0.09055748 0.19406831 0.19068687 -0.0052726283 -0.2884218 -0.109999284 -0.41971087 -0.11793943
1188 -0.07122038 -0.32759342 0.47898886 0.045411058 0.024813345 0.14765044 -0.030039137 -0.25480044 0.15674205 -0.033971023 0.03240265 -0.13894863 0.10960583 -0.105712034 0.14873308 -0.2788671 0.13316312 -0.018827485 -0.12043779 -0.023851242 0.10624591 0.013723306 -0.04275065 0.053835794 0.112589985 -0.21137843 -0.034878157 -0.19297998 -0.16493614 -0.042596366 -0.122381315 -0.17425682 -0.3748249 -0.1375844 0.074743696 0.15525274 0.19765988 -0.03377691 -0.21126235 -0.06447675 -0.006656588 0.16037317 0.03305279 -0.01893913 0.18197569 -0.07443108 0.21512033 -0.16559787 -0.117057435 0.016213719 0.0071554356 0.10394677 0.047921546 0.29516947 0.18900563 -0.10083455 0.054706253 0.19637501 0.037880678 0.026295133 0.04561922 -0.35397533 0.09960155 -0.042719033 -0.17646658 0.081640124 -0.23431157 -0.35570428 -0.14380626 0.045416523 0.2375158 -0.04838785 0.0051647173 0.16693829 0.17677772 0.14901695 0.08542256 0.03961655 0.34449136 -0.20157702 -0.09168391 0.19240193 -0.041732762 -0.20186666 0.08855265 0.25878665 0.121151686 0.03977811 -0.153044 -0.12491604 -0.046410386 -0.00081760884 0.061982937 0.020435408 0.11788647 0.16761929 0.037271593 -0.07167833 -0.011538177 0.11821092 -0.02460854 -0.104282066 -0.04118104 0.2447688 0.08189245 0.07936962 -0.136572 -0.031589 -0.20359568 0.08245129 0.2967252 0.019155808 -0.12704512 0.10962327 0.072963014 0.121634275 0.02876093 -0.055226866 0.016250873 -0.14340813 0.05616398 0.019957585 0.084087715 -0.20604353 -0.105341464 -0.123605005 -0.09900742 0.08822414
380 0.10026454 -0.16115406 0.38092318 -0.115768515 0.028743157 0.061265282 0.13324755 -0.011612859 -0.08239785 -0.081199415 0.03988949 -0.12675627 -0.0255426 -0.13411614 0.11403157 -0.15729785 0.12630485 -0.10958569 -0.073829114 0.008893271 0.13694705 0.12637664 -0.018720184 -0.07148541 0.16007556 -0.10117217 -0.0927762 0.0011618382 0.059530977 0.0019522288 0.04899781 -0.083415344 -0.26543644 -0.21247815 0.13755909 0.11797863 0.26091236 -0.059599925 -0.21468812 -0.051355712 0.2244466 -0.058079682 0.16227263 0.11471719 0.22255307 0.11764523 0.3568818 -0.0698671 -0.21600538 -0.079057395 -0.051382672 0.02037734 0.052267104 0.4116875 0.087398924 -0.20376596 -0.06916436 0.033095263 -0.0866055 0.08043222 0.29206634 0.04472422 -0.0060427915 -0.13291897 0.028475553 0.09552948 -0.13558283 -0.17504135 0.007103387 -0.015617673 0.24621971 -0.109659605 0.21557139 0.050764997 0.50632334 -0.06685218 0.08397709 -0.0075485404 0.1892852 0.044417724 -0.08912327 0.06307417 0.017689316 -0.08365277 0.092037864 0.17507838 0.050590057 -0.049446084 -0.15801752 0.014271579 -0.16661341 -0.1033131 0.16614196 -0.2748003 0.16589576 0.11253398 -0.18315083 -0.005846612 0.10029431 0.047736265 -0.1733592 -0.03205824 -0.014110889 0.073836066 0.017020497 0.09158403 0.01328014 0.06812673 -0.13086104 -0.045633286 0.31322846 -0.044602763 -0.012290756 0.09212301 0.019497199 0.15387858 -0.12700033 0.1652506 -0.08008661 -0.25670522 0.18539245 0.1815436 0.023375241 -0.03923208 -0.1726252 -0.27183136 -0.079331994 0.025219452
74 0.10644959 -0.10616703 0.3530955 -0.13500127 -0.026214415 0.22503412 -0.16484258 -0.3082252 0.18314971 -0.23914038 -8.232512e-05 -0.010519811 0.34534407 -0.10538158 0.121319056 -0.27690437 0.07447815 -0.12658887 -0.012695951 0.13216059 -0.014711216 -0.06232675 0.25463793 0.09256 0.06943161 -0.19012418 0.022242613 -0.054943368 -0.0061715744 -0.056774784 -0.11674945 -0.21934466 -0.18423882 -0.16530548 -0.00088375 0.18883736 0.093067005 -0.20608598 -0.15445839 -0.10674307 0.07955087 0.17297539 0.14122194 -0.01632193 0.00019657167 8.068456e-05 -0.018924518 -0.022373592 -0.04423054 -0.2784469 -0.02163281 0.24238327 -0.035452247 0.27973884 -0.08806454 -0.18546012 0.033429235 0.21134818 0.033201724 0.2595311 0.037738055 -0.17341825 -0.06586815 0.09667423 -0.1744779 -0.05345616 -0.07221224 -0.28704175 -0.25607517 0.059771787 0.17390606 0.018611357 0.05988074 0.003203846 0.43059534 0.02886863 0.011301722 -0.13035381 0.022165313 -0.13648571 0.041435365 0.088119246 -0.16689219 -0.21843068 -0.023641508 0.09998964 0.057029966 0.038562756 -0.0811529 -0.20254631 -0.09658268 0.06501406 0.070806086 -0.014637387 0.123097986 0.08816145 0.17943667 0.068791 0.06665284 -0.1859339 0.099443644 -0.10277731 -0.08970307 0.13672282 -0.019625185 -0.03445601 0.20069857 -0.0007240046 -0.04459536 0.053133637 0.26934862 0.090316735 0.106130615 0.002243897 0.18207814 0.049122237 -0.07359871 -0.09859318 -0.0136249745 -0.061138485 -0.020852774 0.2074467 0.035922498 -0.21501906 -0.22881131 -0.08722512 -0.16044673 0.05198737
114 -0.016750949 -0.09546745 0.3084449 0.033908185 0.046902396 0.0806066 -0.02717056 -0.19622386 0.12854163 -0.16437018 0.047011554 -0.24340613 0.2428273 -0.14769137 0.15975475 -0.25227237 0.07150307 -0.016266232 -0.1146892 -0.12791073 0.20402901 -0.14147985 0.06529147 0.12920018 -0.004824852 -0.24271946 -0.048340898 -0.18934904 -0.11490768 0.034126826 -0.03816369 -0.16084139 -0.31058398 -0.14544645 -0.07467941 0.20906627 0.11705924 -0.010411102 -0.1539943 0.0756474 0.004592145 0.10703924 0.21083099 -0.042631317 -0.0032569116 0.23580508 0.10007576 -0.12954687 -0.25401878 -0.20279436 -0.1175069 0.18506896 0.12966794 0.17098849 0.08054518 -0.3168665 -0.03821525 0.16068439 -0.15396604 0.09221874 0.039011747 -0.023442093 0.04930926 0.060106475 -0.03334418 -0.050343793 -0.04058615 -0.21065357 -0.23489267 0.13977547 0.012566226 -0.040870164 0.18199424 0.03617478 0.3369171 0.11285084 0.082614824 0.0053872755 0.07040382 -0.009346826 0.012878331 0.17064263 0.04876034 -0.18967794 0.1660539 0.1811889 0.10845189 -0.003949436 -0.1242605 -0.03737507 -0.13195753 -0.06391784 -0.008264107 -0.1146238 0.18651585 0.20455983 0.1270444 0.064635485 0.07310058 -0.046743415 0.05040575 0.0070679467 -0.048565365 -0.04215014 0.03932753 0.06836958 0.07863727 -0.033777718 -0.22816682 0.116231404 0.3563828 0.12597832 0.16998191 0.09096886 0.06944223 0.0732693 -0.12777936 0.04695767 -0.09611052 -0.0704591 -0.011900046 0.12132518 0.15065464 -0.17056923 -0.23593743 -0.1304399 -0.08882611 0.08385362
791 0.09694356 -0.16354334 0.28572246 -0.146546 0.101713695 0.1150975 0.046721403 -0.17689984 0.029595416 -0.03891275 -0.03328617 -0.15755117 0.06991465 -0.07237816 0.14798772 -0.25379658 0.18591185 -0.1555393 -0.09522033 -0.230263 0.07019377 0.030468928 -0.033973217 -0.09761489 0.100602895 -0.2512587 -0.12559319 -0.014665004 -0.028098986 -0.0076335007 0.13155924 -0.14330329 -0.4653935 -0.20702232 0.112645656 -0.041985683 0.19174442 -0.21786574 -0.12651238 -0.26462653 0.11534752 0.2268091 0.17724845 -0.07893572 0.19386703 0.059298985 0.17910546 -0.13320068 -0.20106931 -0.11623742 -0.14179282 0.060641088 -0.057373136 0.27516708 0.17738125 -0.19604993 -0.002040031 0.11328465 -0.06606094 -0.060949836 0.07891342 -0.1599784 0.017835854 -0.112431325 -0.12419986 0.06868633 0.02650375 -0.15652943 -0.06379012 0.15856883 0.17972977 -0.05759592 0.0879827 0.01849609 0.37951475 0.057399295 0.15426716 -0.019271998 0.28624183 -0.046726655 -0.05015894 0.24704988 0.014798498 -0.017493451 0.15825956 0.28983575 0.033397667 -0.022714943 -0.11345045 -0.09330796 -0.10865456 0.12594375 0.01957911 -0.28233135 0.09470871 0.23772569 -0.055688463 -0.1257181 0.06042385 -0.009616259 -0.044425532 0.0037318778 -0.017884588 -0.0143207 0.044408962 0.03373814 0.08751576 -0.04342094 -0.30038851 0.04890074 0.43098348 0.18698196 0.19206251 0.11969845 0.042664744 0.09761287 -0.21449068 -0.0032009815 -0.012441038 -0.11001664 0.23056804 0.12073753 0.057808634 -0.19298244 -0.07949091 -0.23004831 -0.20300977 0.051521372
631 -0.0472401 -0.19316679 0.3176695 -0.05211649 -0.045922283 0.17602727 0.027788563 -0.23716201 0.050899267 -0.13837603 0.08408496 -0.08848042 0.079690434 -0.038039204 0.38030812 -0.12844403 0.24899136 -0.1113588 0.07627344 0.031075425 -0.06193053 -0.014551513 0.035069164 -0.08064761 0.11149338 -0.21541911 0.008590286 -0.15217167 -0.046167817 -0.13635054 -0.0005753479 -0.13429408 -0.2611592 -0.17156078 0.09189916 0.22757792 0.0916862 -0.026084363 -0.123351954 -0.086364105 0.17840056 0.16906734 0.26805216 0.1577194 0.14110154 -0.031593915 0.14639178 -0.015765483 -0.080379635 -0.2483997 0.028775131 0.19410366 0.030514928 0.22589342 -0.046347737 -0.13004753 0.08480102 0.018760107 0.030206216 0.16222842 -0.014361027 -0.23219624 -0.018936802 0.06270153 -0.15073258 -0.002005487 -0.23018369 -0.17624182 -0.078556865 0.085465595 0.14686672 0.18441615 0.22118546 0.030948158 0.30406561 0.008630157 0.14717016 -0.056373935 0.08286683 -0.0828823 0.09098088 0.18474546 0.06181018 -0.079376236 -0.0465222 0.28262684 0.18578908 -0.006166804 -0.07012687 -0.051608767 -0.1184958 0.05924636 0.15256612 -0.14240809 0.17891692 0.06914204 0.076885946 0.10687574 -0.06539221 -0.114495456 -0.22755146 -0.0897843 0.039812624 0.0152156325 -0.031028997 -0.02174407 -0.09641717 -0.12848935 -0.10055926 0.22667024 0.39281112 -0.055205014 0.110197216 0.060244773 0.051276576 0.105983794 -0.022877114 0.011862653 0.07277132 -0.28353962 0.06712304 0.27030104 0.0975718 -0.09461648 -0.11475361 -0.21250741 -0.25977558 0.08376814
976 -0.028370207 -0.18340687 0.34363532 -0.0641381 0.030661331 0.115302026 0.16714148 -0.053602777 -0.1483607 -0.05929209 0.11654376 -0.2608472 0.20262887 -0.02732095 0.2196026 -0.037196737 0.1280806 -0.04942662 -0.058682255 -0.029819047 0.18084082 0.050784957 0.042033263 0.070186935 0.08287663 -0.18695244 -0.10628914 -0.07801323 -0.005064126 0.08570377 -0.056868814 -0.17613679 -0.39113662 -0.18969753 0.09741239 0.21767877 0.2629879 -0.039314352 -0.13449897 -0.0037487883 0.1369298 0.11621649 0.23448639 0.14304245 0.14728038 0.068219386 0.3253621 -0.1175887 -0.08782528 -0.07511904 -0.07366039 -0.015163801 0.19304071 0.32776076 0.0943502 -0.15452348 -0.058263652 0.030230312 -0.09199888 0.17269076 0.11843703 -0.22973472 -0.15545452 -0.17623459 -0.05680162 0.017367227 -0.09707696 -0.28148437 -0.0014747191 0.10171651 0.29875755 -0.092423424 0.016432812 0.10375977 0.42403385 -0.015377363 0.18587282 -0.053098667 0.13916722 -0.053129625 0.007981864 0.015895197 0.07668126 -0.09602825 0.1220096 0.20610033 0.082610056 -0.1757366 -0.07848633 0.08814222 -0.16201925 -0.044013407 0.1597523 -0.1290698 0.13922809 0.13542388 -0.004744068 0.08996851 -0.0019433221 -0.04326418 -0.08650458 -0.035910234 -0.0437926 0.011572926 0.1008354 -0.034362063 0.033439353 -0.0460761 -0.06990706 0.004278792 0.31552064 -0.039112553 -0.03327314 0.007774378 0.01750463 0.14773479 -0.16494018 0.018897638 -0.018834423 -0.19699804 0.10799139 0.17785524 0.042511977 -0.109909445 -0.16745622 -0.13573112 0.031442273 0.07071947
773 -0.03046997 -0.09012669 0.4166947 0.11743943 0.07861727 -0.042499192 0.14435631 -0.21191898 -0.03179371 -0.15314011 0.06109998 -0.14301828 0.11290996 -0.090796344 0.31559545 -0.30355623 -0.09832338 0.08148076 -0.063975826 -0.011360439 0.0068312804 -0.14020489 0.05827804 -0.03561807 0.13307352 -0.041785885 -0.08313202 0.017502885 -0.101676926 -0.062225398 -0.10788378 -0.06751302 -0.23382749 -0.169442 -0.028972488 0.1534726 0.22644618 -0.12399501 -0.17265537 -0.026393848 0.041431364 0.21394752 0.15465643 0.1439022 0.11482994 0.1020325 0.14070162 -0.15490401 0.010177464 -0.16753739 -0.08775621 0.15015776 -0.02837249 0.34015048 0.060964316 -0.14850509 0.051605072 0.13131163 0.02818349 0.12792288 0.32038414 -0.14267409 -0.10670419 0.015062036 0.011929911 -0.07414859 -0.009918665 -0.34182325 -0.1414619 0.09342922 0.14583099 0.029341104 0.18362021 0.018218387 0.39399526 0.11023291 0.10451295 -0.1805634 0.20265211 -0.026335005 -0.08740406 0.22284307 0.105554484 -0.19346121 0.13232855 0.10818051 0.10076838 0.04921872 0.12702316 0.04633006 0.073554315 0.0097567225 0.096925214 -0.13147481 0.22065182 0.25249857 0.1512552 0.073737115 0.028473802 -0.03259527 0.1628608 0.031707153 0.09618176 0.026595695 0.049240276 0.11417139 0.041510627 -0.047085535 -0.12183681 0.21889149 0.2568094 0.055157404 -0.117842376 0.013847526 0.04425564 -0.010312114 -0.050054733 -0.07207593 0.023152573 -0.09885258 -0.036708385 0.2033507 0.13551898 -0.063071415 -0.14637566 -0.18186097 -0.19866872 -0.09067778
469 0.04225001 -0.21902645 0.4063561 -0.08351781 0.04377515 0.2198705 0.001644854 -0.20274073 0.0028038125 -0.07684608 -0.01713839 -0.08504474 0.15722615 -0.041758798 0.1756696 -0.18698718 0.084438674 -0.036492117 0.024139397 0.023501873 0.088817686 0.034341905 0.013970698 -0.08299747 0.12342646 -0.25440854 -0.13965338 -0.21910727 -0.11506633 -0.13306996 -0.10134379 -0.26475587 -0.33005247 -0.045157727 0.062158 0.2849737 0.17994203 -0.16006768 -0.07957417 -0.05324098 0.20310645 0.062162865 0.23968278 0.07271133 0.17292969 0.059591234 0.22658344 -0.19697157 -0.10348224 -0.07448587 -0.12653859 0.22831355 0.010378962 0.16467424 0.20155787 -0.18742396 -0.022368591 0.111141734 -0.1780397 0.30033693 -0.13422439 -0.23443738 0.009540188 0.014201943 -0.02832129 -0.060135506 -0.050035805 -0.088447474 -0.026455414 0.085920036 0.115684666 -0.09043202 0.11644387 0.08964534 0.17613854 0.09433907 0.12306633 -0.09774359 0.24817848 -0.017742788 0.10425278 0.2020395 0.094841816 -0.118082054 0.20226482 0.26220453 0.116342135 -0.034647588 -0.11678155 0.044240486 -0.109857656 0.08474097 0.054679047 -0.21756463 0.027766904 -0.030274788 0.052796073 -0.070182785 0.14745279 0.106576055 0.049202353 0.007879225 0.036386464 0.048589673 0.19205494 0.030217327 -0.01770323 -0.09528258 -0.30277863 -0.06719283 0.30904058 -0.03609694 0.11124973 0.040924076 0.0398928 0.13729934 -0.07302632 0.014010884 0.051995944 -0.29943484 0.18281035 0.0076381755 0.123064056 -0.076154046 -0.09197254 -0.18887621 -0.2201252 0.2826857
968 0.059589308 -0.07195765 0.34517264 0.031171579 0.078544244 0.028591052 -0.07896605 -0.2300563 0.014056634 -0.14380682 0.02102868 -0.06836957 0.1223091 -0.10832017 0.09042876 -0.30541626 0.11861685 -0.10557378 0.055332005 0.023170143 0.046705153 -0.1279254 0.093360476 -0.1065696 0.15555273 -0.26180914 -0.13035537 -0.076129146 -0.16046607 -0.040756628 -0.04309981 -0.17825982 -0.18801525 -0.12670277 0.06741197 0.23581101 0.20838588 0.0055953083 -0.20577987 -0.016185328 0.14560522 0.16704988 0.23579162 0.029750207 0.22613522 0.071447834 0.14768521 -0.14368995 -0.12361042 -0.11665867 -0.07676877 -0.022777475 -0.11296565 0.20946869 0.10149545 -0.14921512 0.0126642585 0.051165946 -0.22832745 0.045887858 0.08685915 -0.2398732 -0.069903344 -0.054711916 -0.12020941 -0.013176881 -0.088417925 -0.13702798 0.013695258 0.12319632 0.14694327 -0.044690657 0.042126123 0.04811888 0.2795433 -0.092206314 0.20274284 -0.15860994 0.20723598 0.018895827 -0.005052581 0.1087682 0.10088228 -0.19958845 0.104009196 0.21115561 0.11946083 -0.047413215 -0.24127015 -0.04539367 -0.18348032 0.064062946 0.109302595 -0.2678586 0.07870562 0.07450834 0.029608188 -0.044276927 0.07510697 -0.005655655 -0.061927866 0.00048257157 -0.0255026 0.03524642 -0.0036123248 0.10855756 -0.06559128 -0.087049425 -0.1455472 0.088850796 0.32508063 0.039162606 0.04199253 0.084607564 0.1061273 0.11535263 -0.09725555 0.02596177 0.0696917 -0.19843508 0.07809861 0.097756505 0.15366663 0.028868675 -0.07976176 -0.22486645 -0.25232074 0.12839726
161 0.077649556 -0.07962242 0.3490853 -0.008044548 0.16078512 0.031778205 -0.08896119 -0.32553124 0.09321986 -0.157831 -0.009834957 -0.07836607 0.22123037 -0.2168141 0.1766515 -0.26812625 0.041614525 0.07096372 -0.19687377 -0.15457736 0.11141265 -0.081138656 0.09001029 -0.13579692 0.06405798 -0.26178175 -0.04860819 -0.048802167 -0.18047208 -0.09477931 0.04077722 -0.37915555 -0.30053198 -0.012773739 0.16527812 0.00967707 0.29221722 -0.024124406 -0.25512177 0.010669913 0.022870721 0.07453348 0.06330068 -0.118464366 0.14171737 0.10748917 0.10903544 -0.15278706 -0.21522798 -0.0051395856 -0.04357429 0.034376275 0.101776995 0.23616397 0.07624637 -0.08274037 0.14337263 0.10255722 -0.084546514 0.047861125 0.034679715 -0.05372358 0.07856257 0.0045261 -0.09726096 -0.024041826 -0.11976139 -0.06781592 -0.15107588 0.085621156 0.18404916 -0.03168869 0.12099728 -0.031716436 0.3030824 0.03023906 0.025080038 -0.16934653 0.11717559 0.13715601 0.0061029326 0.14788498 0.1212398 -0.08852398 -0.0548649 0.16885406 0.11930345 0.07394095 -0.15364814 -0.08473376 -0.115263626 -0.01765659 0.118723296 -0.2543863 0.12230858 0.26329687 -0.095766075 -0.03280382 0.11870135 0.020469302 -0.13002606 0.048424173 0.07452568 0.032619115 0.005533491 0.081906885 0.11519637 0.025822805 -0.13603985 0.15793212 0.23015837 0.064289145 0.12277781 0.17927451 0.13994633 0.20934 -0.15081607 0.025864597 -0.13762419 -0.21079542 0.1552557 0.2987175 0.21494238 -0.10128808 -0.14868297 -0.21443611 -0.07186209 -0.06710161
307 0.030203791 -0.14705862 0.3049034 0.07409017 0.06536329 0.11288284 0.21219622 -0.14823322 0.09948906 -0.05756589 0.02834978 -0.054097667 0.08847139 -0.012354356 0.1384261 -0.26079002 0.078374505 -0.16540205 -0.14292848 0.027278874 0.13572218 0.020303048 0.11375902 0.072752506 0.09571656 -0.23239918 -0.18613751 -0.1075486 -0.0781302 -0.28722394 -0.14096586 -0.30047193 -0.18710838 -0.20757264 0.08221529 0.17189004 0.12016486 -0.04423564 -0.17154413 -0.03428109 0.049548294 0.0705278 0.123635255 -0.0031104654 0.05443463 0.048426535 0.1486374 -0.25213847 -0.13058245 0.011332311 -0.0057852087 0.11385746 0.048977304 0.2548237 0.118702315 -0.09597797 0.08595119 0.15380193 -0.15906693 0.21011741 0.07175418 -0.06296586 -0.047883514 -0.013783607 -0.042866513 -0.11630382 -0.15173824 -0.17500953 -0.27595386 0.05968765 0.18944179 0.082869574 -0.0487588 -0.01203112 0.41943145 -0.014521592 0.12998065 -0.10732162 0.33178127 -0.13273412 0.012897655 0.1769513 -0.11063747 -0.14832792 -0.017896252 0.29473466 0.020389745 0.013672984 -0.14569433 0.03989229 -0.44818422 0.08886082 0.098967746 -0.11010019 -0.015546659 0.2690843 0.020827243 -0.01994113 -0.030766811 0.005945157 -0.16287819 -0.050833754 -0.075558044 0.0748941 0.04733407 0.03213995 -0.06953722 -0.07924597 -0.17508903 -0.038087472 0.26433432 0.08293565 0.053876903 0.17576256 0.022838378 0.13650416 0.05196607 -0.017741652 -0.04867836 -0.28198904 0.028954562 0.039785817 0.0067275865 -0.16768225 -0.17421816 -0.26319975 -0.026937233 -0.086674206
361 -0.06234517 -0.11881415 0.35480553 -0.031191254 0.014647932 0.10454398 0.027042376 -0.24026379 0.05281103 -0.15051556 0.1033655 -0.103890814 0.05825564 -0.22684325 0.23651 -0.13375583 0.21747255 0.039331947 -0.14857227 -0.13338606 0.10221373 -0.066338606 0.029475806 -0.039005864 0.075699516 -0.2790408 -0.05004431 -0.20025928 0.005624392 -0.0058775158 0.10029111 -0.20786186 -0.38905543 -0.16446085 0.180792 0.1052971 0.09726827 0.00785404 -0.2014748 -0.027960096 0.029493643 0.062554955 0.28797713 0.07807586 0.18036847 0.1371785 0.20557879 -0.087016195 -0.08387157 -0.26493284 -0.1080432 0.25483257 0.16132201 0.18037249 0.18191469 -0.104104966 0.019656157 0.0922836 -0.028588552 0.03935835 0.084142126 -0.12509514 -0.04117869 -0.039607506 -0.07446983 -0.035372287 -0.24414062 -0.2241236 -0.11614805 0.05760321 0.028125683 -0.061993048 0.10791873 0.048377883 0.34075826 0.011391143 0.07442899 -0.10715989 0.23374514 -0.080627315 -0.028412834 0.11210724 -0.040167242 -0.017212639 0.10982859 0.11989315 0.17435914 0.04954213 -0.1412554 -0.07656427 -0.19200827 0.008247142 0.18033743 -0.11826734 0.13799624 0.22162032 0.0402108 0.03092279 0.15830824 -0.07961873 -0.02399723 0.012688984 0.015089764 -0.03964931 0.022720657 -0.09767914 0.0041561984 -0.08491341 -0.08956714 0.12797812 0.3557715 0.08217189 0.02714611 0.0023454349 0.1346221 0.17399627 -0.042982254 -0.016306773 0.09479158 -0.1713478 0.12529612 0.12173712 0.08449531 -0.035553962 -0.12526363 -0.2544133 -0.2504025 -0.0028799449
333 0.068799615 -0.17810456 0.35668564 -0.06876292 0.09248015 0.10120081 0.013185059 -0.02582346 0.1204521 -0.18394521 0.1980773 -0.16073121 0.13050507 -0.1877933 0.06650256 -0.14459923 0.2898623 0.15394631 0.043786433 -0.011167489 0.14615232 0.0980842 0.19848935 -0.17733486 0.17247565 -0.15668568 -0.13169123 -0.008098005 -0.054453533 0.06999074 -0.031293556 -0.36103818 -0.24066584 -0.22112894 0.1369176 0.22752866 0.10350945 -0.06306185 -0.12249444 -0.06426276 0.26759 -0.039426833 0.25984743 0.068782665 0.28183183 0.049184963 0.2149317 0.008774287 -0.11321956 -0.21802206 -0.060820155 0.07492846 -0.067485586 0.21760324 0.042131107 -0.05960164 -0.038596496 -0.06355403 -0.02870482 0.15317357 0.1426393 -0.24048595 -0.12628919 -0.13167691 0.12156847 -0.050543867 -0.098239705 -0.22454828 0.0032549195 0.0030207797 0.12679255 -0.048824415 -0.037181284 -0.08829226 0.32130352 -0.22276776 0.08448015 0.045723695 0.048412833 -0.029830318 -0.11553456 0.011207624 0.07440992 -0.105392694 -0.031615604 0.10383209 0.03639364 -0.20666756 -0.1583722 -0.045345116 0.019996077 -0.1131258 0.106868364 -0.27377817 0.160912 0.19471008 -0.11030621 -0.11052575 0.021547941 -0.11004838 0.050250873 -0.08377989 0.05021508 0.012593856 -0.032318067 0.031083284 0.14483006 0.063983575 -0.08764054 0.021558356 0.25273067 -0.008087366 0.09975256 0.0035558357 0.12953274 0.14759153 -0.079486854 0.0565454 -0.15877931 -0.3126741 0.23724866 0.34153184 0.028163217 -0.039202515 -0.33307257 -0.1928626 -0.034550495 0.19108163
872 -0.04633562 -0.0017127838 0.14081441 -0.046574604 0.057829216 0.124343686 0.05164227 -0.26631555 0.088091254 -0.036316626 0.038467895 -0.124422126 0.23349193 -0.06716569 0.18478541 -0.30145216 0.2154642 -0.07415619 -0.056570966 -0.06462921 0.09048671 -0.13387194 -0.008769578 -0.16173059 0.14561884 -0.19630952 -0.01647581 0.06955344 -0.18968938 -0.09365339 0.04055488 -0.37016895 -0.27225557 -0.13700566 0.1331756 0.29551908 0.18522525 -0.006214722 -0.13437037 -0.022014048 0.12857042 0.1229038 0.20453455 -0.02076161 0.16506737 0.11440148 0.054563977 -0.047149632 -0.019408077 -0.0047899643 -0.01848454 0.077256754 0.0349024 0.355076 0.083027594 -0.16236228 0.14213435 -0.021139264 -0.081684284 0.057774395 -0.008919558 -0.13478573 -0.09262053 -0.12796897 -0.15347928 0.06324518 -0.24260832 -0.16214731 -0.1359108 0.1460853 0.13817261 0.09602162 0.1118907 -0.03480041 0.20198216 0.08527682 0.117457986 -0.10513847 0.024664532 -0.06694812 0.04779759 0.09650616 -0.11407297 -0.14881258 -0.085982375 0.2637438 0.10418637 -0.038944907 -0.07025346 -0.07286598 -0.05793932 0.020476215 0.18768516 -0.13133006 0.15551786 0.18501131 -0.1384826 0.13024044 0.005414775 -0.15635554 -0.03878072 0.03585716 -0.005545528 0.031016411 0.06890459 0.0476317 0.050302777 -0.12231663 -0.1445864 0.187817 0.34353754 -0.08579934 0.047165163 0.15482168 0.14470336 0.14920053 0.025755765 -0.020728553 0.049133513 -0.3435662 0.01448303 0.19658947 0.009283375 0.030543642 -0.24538681 -0.1962175 -0.031682633 -0.10345899
146 0.0039273044 -0.16084023 0.34710675 0.09619424 -0.08549434 0.12195617 0.10239313 -0.19084613 0.002311892 -0.0017884256 0.060772244 -0.10277164 0.11839274 0.013423333 0.21722345 -0.27573347 0.056501053 -0.06819221 -0.064119935 -0.033602558 0.072572716 -0.11468884 0.010428803 -0.079573356 -0.05188586 -0.33060557 -0.04464513 0.055962082 -0.18978949 -0.103816874 0.084127046 -0.4238977 -0.28272805 -0.15275113 0.1511605 0.10919842 0.18726896 -0.12440625 -0.14223883 0.0018097162 0.022531215 0.1557969 0.08699421 0.00030486076 0.123591326 0.08687499 0.18794717 -0.23229292 -0.026548535 -0.16190869 -0.06407333 0.25060752 0.07140999 0.34926677 0.11851313 -0.08952627 -0.013334628 0.053184066 -0.11915437 0.06020837 0.0093715945 -0.115348734 0.090043254 -0.0481937 -0.014165799 -0.03756067 0.040859696 -0.34124643 -0.15296027 0.12072716 0.06146546 -0.0415388 0.054462213 0.063573696 0.18563461 0.15483637 0.11620998 -0.00054778357 0.11327752 -0.16063115 0.10801557 0.01110155 0.05702954 -0.17209393 0.036738127 0.25663292 0.061929274 0.09164612 -0.14004868 -0.07558541 -0.14105922 0.025219176 0.06629325 -0.112804934 0.15779653 0.29609355 0.10622485 0.041487884 0.084244035 0.04786962 0.021580327 -0.06716317 -0.1487993 0.021038255 -0.01326015 0.04032262 0.027342068 -0.081305146 -0.23013976 0.08834583 0.40841344 0.22308451 0.11398016 0.1271128 0.15667875 0.11659068 -0.12980884 -0.016459178 -0.07414725 -0.17794307 0.017350776 0.12939881 0.14486144 -0.11194369 -0.077618636 -0.15543547 -0.02105638 0.035609875
